{"learner":{"attributes":{"scikit_learn":"{\"_estimator_type\": \"regressor\"}"},"feature_names":["elo","opponent_elo","is_home","tournament_num","confed","rival_confed","gf_prom_5","gc_prom_5","elo_prom_5","gf_prom_15","gc_prom_15","PCA_1","PCA_2","rival_gf_prom_5","rival_gc_prom_5","rival_elo_prom_5","rival_gf_prom_15","rival_gc_prom_15","rival_PCA_1","rival_PCA_2","fifa_ranking","log_squad_value","avg_age","rival_fifa_ranking","rival_log_squad_value","rival_avg_age"],"feature_types":["float","float","i","int","int","int","float","float","float","float","float","float","float","float","float","float","float","float","float","float","float","float","float","float","float","float"],"gradient_booster":{"model":{"cats":{"enc":[],"feature_segments":[],"sorted_idx":[]},"gbtree_model_param":{"num_parallel_tree":"1","num_trees":"500"},"iteration_indptr":[0,1,2,3,4,5,6,7,8,9,10,11,12,13,14,15,16,17,18,19,20,21,22,23,24,25,26,27,28,29,30,31,32,33,34,35,36,37,38,39,40,41,42,43,44,45,46,47,48,49,50,51,52,53,54,55,56,57,58,59,60,61,62,63,64,65,66,67,68,69,70,71,72,73,74,75,76,77,78,79,80,81,82,83,84,85,86,87,88,89,90,91,92,93,94,95,96,97,98,99,100,101,102,103,104,105,106,107,108,109,110,111,112,113,114,115,116,117,118,119,120,121,122,123,124,125,126,127,128,129,130,131,132,133,134,135,136,137,138,139,140,141,142,143,144,145,146,147,148,149,150,151,152,153,154,155,156,157,158,159,160,161,162,163,164,165,166,167,168,169,170,171,172,173,174,175,176,177,178,179,180,181,182,183,184,185,186,187,188,189,190,191,192,193,194,195,196,197,198,199,200,201,202,203,204,205,206,207,208,209,210,211,212,213,214,215,216,217,218,219,220,221,222,223,224,225,226,227,228,229,230,231,232,233,234,235,236,237,238,239,240,241,242,243,244,245,246,247,248,249,250,251,252,253,254,255,256,257,258,259,260,261,262,263,264,265,266,267,268,269,270,271,272,273,274,275,276,277,278,279,280,281,282,283,284,285,286,287,288,289,290,291,292,293,294,295,296,297,298,299,300,301,302,303,304,305,306,307,308,309,310,311,312,313,314,315,316,317,318,319,320,321,322,323,324,325,326,327,328,329,330,331,332,333,334,335,336,337,338,339,340,341,342,343,344,345,346,347,348,349,350,351,352,353,354,355,356,357,358,359,360,361,362,363,364,365,366,367,368,369,370,371,372,373,374,375,376,377,378,379,380,381,382,383,384,385,386,387,388,389,390,391,392,393,394,395,396,397,398,399,400,401,402,403,404,405,406,407,408,409,410,411,412,413,414,415,416,417,418,419,420,421,422,423,424,425,426,427,428,429,430,431,432,433,434,435,436,437,438,439,440,441,442,443,444,445,446,447,448,449,450,451,452,453,454,455,456,457,458,459,460,461,462,463,464,465,466,467,468,469,470,471,472,473,474,475,476,477,478,479,480,481,482,483,484,485,486,487,488,489,490,491,492,493,494,495,496,497,498,499,500],"tree_info":[0,0,0,0,0,0,0,0,0,0,0,0,0,0,0,0,0,0,0,0,0,0,0,0,0,0,0,0,0,0,0,0,0,0,0,0,0,0,0,0,0,0,0,0,0,0,0,0,0,0,0,0,0,0,0,0,0,0,0,0,0,0,0,0,0,0,0,0,0,0,0,0,0,0,0,0,0,0,0,0,0,0,0,0,0,0,0,0,0,0,0,0,0,0,0,0,0,0,0,0,0,0,0,0,0,0,0,0,0,0,0,0,0,0,0,0,0,0,0,0,0,0,0,0,0,0,0,0,0,0,0,0,0,0,0,0,0,0,0,0,0,0,0,0,0,0,0,0,0,0,0,0,0,0,0,0,0,0,0,0,0,0,0,0,0,0,0,0,0,0,0,0,0,0,0,0,0,0,0,0,0,0,0,0,0,0,0,0,0,0,0,0,0,0,0,0,0,0,0,0,0,0,0,0,0,0,0,0,0,0,0,0,0,0,0,0,0,0,0,0,0,0,0,0,0,0,0,0,0,0,0,0,0,0,0,0,0,0,0,0,0,0,0,0,0,0,0,0,0,0,0,0,0,0,0,0,0,0,0,0,0,0,0,0,0,0,0,0,0,0,0,0,0,0,0,0,0,0,0,0,0,0,0,0,0,0,0,0,0,0,0,0,0,0,0,0,0,0,0,0,0,0,0,0,0,0,0,0,0,0,0,0,0,0,0,0,0,0,0,0,0,0,0,0,0,0,0,0,0,0,0,0,0,0,0,0,0,0,0,0,0,0,0,0,0,0,0,0,0,0,0,0,0,0,0,0,0,0,0,0,0,0,0,0,0,0,0,0,0,0,0,0,0,0,0,0,0,0,0,0,0,0,0,0,0,0,0,0,0,0,0,0,0,0,0,0,0,0,0,0,0,0,0,0,0,0,0,0,0,0,0,0,0,0,0,0,0,0,0,0,0,0,0,0,0,0,0,0,0,0,0,0,0,0,0,0,0,0,0,0,0,0,0,0,0,0,0,0,0,0,0,0,0,0,0,0,0,0,0,0,0,0,0,0,0,0,0,0,0,0,0,0,0,0,0,0,0,0,0,0,0,0,0,0,0,0,0,0,0,0,0,0,0,0,0,0,0,0,0,0],"trees":[{"base_weights":[4.645307E-3,4.9868304E-1,-1.274209E-1,4.2316258E-2,7.906336E-1,-4.2841876E-1,1.0275726E-1,4.0683922E-1,-1.6030212E-1,6.533021E-1,1.1978185E0,-2.7246743E-1,-7.1672446E-1,-1.5468922E-1,3.8806197E-1,7.046873E-4,6.5726284E-3,-4.032757E-3,-4.4873258E-4,9.372176E-3,4.047483E-3,1.036332E-2,1.5616686E-2,-6.551928E-3,-1.9929102E-3,-1.0971008E-2,-6.606703E-3,-2.8755844E-3,1.6811229E-3,2.0810887E-3,6.757433E-3],"categories":[],"categories_nodes":[],"categories_segments":[],"categories_sizes":[],"default_left":[0,0,0,0,0,0,0,0,0,0,0,0,0,0,0,0,0,0,0,0,0,0,0,0,0,0,0,0,0,0,0],"id":0,"left_children":[1,3,5,7,9,11,13,15,17,19,21,23,25,27,29,-1,-1,-1,-1,-1,-1,-1,-1,-1,-1,-1,-1,-1,-1,-1,-1],"loss_changes":[6.7408246E2,2.9032166E2,5.64856E2,6.2939453E1,7.3532715E1,1.5864777E2,3.3942978E2,2.559576E1,1.5347346E1,6.990625E1,1.8005127E1,6.412468E1,2.5704468E1,1.0424963E2,1.1333194E2,0E0,0E0,0E0,0E0,0E0,0E0,0E0,0E0,0E0,0E0,0E0,0E0,0E0,0E0,0E0,0E0],"parents":[2147483647,0,0,1,1,2,2,3,3,4,4,5,5,6,6,7,7,8,8,9,9,10,10,11,11,12,12,13,13,14,14],"right_children":[2,4,6,8,10,12,14,16,18,20,22,24,26,28,30,-1,-1,-1,-1,-1,-1,-1,-1,-1,-1,-1,-1,-1,-1,-1,-1],"split_conditions":[1.19E3,1.144E3,1.506E3,-2.341195E0,1.516E3,1.506E3,6.3E1,1E0,8.7E2,9.99E2,1.73E3,1.111E3,1.184E3,1.85E3,1.718E3,7.046873E-4,6.5726284E-3,-4.032757E-3,-4.4873258E-4,9.372176E-3,4.047483E-3,1.036332E-2,1.5616686E-2,-6.551928E-3,-1.9929102E-3,-1.0971008E-2,-6.606703E-3,-2.8755844E-3,1.6811229E-3,2.0810887E-3,6.757433E-3],"split_indices":[1,0,0,18,0,1,23,6,0,1,0,0,0,0,0,0,0,0,0,0,0,0,0,0,0,0,0,0,0,0,0],"split_type":[0,0,0,0,0,0,0,0,0,0,0,0,0,0,0,0,0,0,0,0,0,0,0,0,0,0,0,0,0,0,0],"sum_hessian":[1.0329475E4,2.1782454E3,8.1512295E3,8.502733E2,1.327972E3,3.5318552E3,4.6193745E3,3.0341074E2,5.4686255E2,9.949941E2,3.329779E2,2.2933003E3,1.2385549E3,2.428479E3,2.1908953E3,1.3003217E2,1.7337857E2,1.7532211E2,3.7154047E2,4.6316443E2,5.3182965E2,2.3328705E2,9.969086E1,3.6681915E2,1.9264811E3,1.566917E2,1.0818633E3,1.7204352E3,7.080438E2,1.3488645E3,8.4203076E2],"tree_param":{"num_deleted":"0","num_feature":"26","num_nodes":"31","size_leaf_vector":"1"}},{"base_weights":[5.775708E-3,5.072973E-1,-1.2717754E-1,1.6247241E-1,7.424847E-1,2.0374005E-1,-3.1919697E-1,1.9176636E-2,7.3476696E-1,1.0766201E0,5.7272184E-1,5.187264E-1,-2.0815045E-2,-1.3052328E-1,-5.7182616E-1,-1.9329889E-3,3.0988322E-3,9.0000285E-3,4.5328215E-3,8.834864E-3,1.3721362E-2,1.1297036E-2,4.6394947E-3,3.0287977E-3,6.483231E-3,2.373121E-3,-1.7908033E-3,-2.9950903E-3,1.6670674E-4,-8.114587E-3,-5.1595313E-3],"categories":[],"categories_nodes":[],"categories_segments":[],"categories_sizes":[],"default_left":[0,0,0,0,0,0,0,0,0,0,0,0,0,0,0,0,0,0,0,0,0,0,0,0,0,0,0,0,0,0,0],"id":1,"left_children":[1,3,5,7,9,11,13,15,17,19,21,23,25,27,29,-1,-1,-1,-1,-1,-1,-1,-1,-1,-1,-1,-1,-1,-1,-1,-1],"loss_changes":[6.813051E2,1.7351941E2,5.1327515E2,7.128879E1,7.15719E1,2.0982263E2,2.435542E2,4.30743E1,7.6888733E0,2.3193298E1,5.0731354E1,3.4339172E1,7.082773E1,7.2818665E1,2.883612E1,0E0,0E0,0E0,0E0,0E0,0E0,0E0,0E0,0E0,0E0,0E0,0E0,0E0,0E0,0E0,0E0],"parents":[2147483647,0,0,1,1,2,2,3,3,4,4,5,5,6,6,7,7,8,8,9,9,10,10,11,11,12,12,13,13,14,14],"right_children":[2,4,6,8,10,12,14,16,18,20,22,24,26,28,30,-1,-1,-1,-1,-1,-1,-1,-1,-1,-1,-1,-1,-1,-1,-1,-1],"split_conditions":[1.19E3,-9.826787E-1,5.1E1,3.5E0,-2.2764416E0,1.593E3,1.503E3,1.0666667E0,-3.3430312E0,1.5454545E0,6.4E1,1E0,1.4E1,1E0,8E-1,-1.9329889E-3,3.0988322E-3,9.0000285E-3,4.5328215E-3,8.834864E-3,1.3721362E-2,1.1297036E-2,4.6394947E-3,3.0287977E-3,6.483231E-3,2.373121E-3,-1.7908033E-3,-2.9950903E-3,1.6670674E-4,-8.114587E-3,-5.1595313E-3],"split_indices":[1,11,20,14,18,1,1,9,18,9,20,2,20,2,9,0,0,0,0,0,0,0,0,0,0,0,0,0,0,0,0],"split_type":[0,0,0,0,0,0,0,0,0,0,0,0,0,0,0,0,0,0,0,0,0,0,0,0,0,0,0,0,0,0,0],"sum_hessian":[1.0215731E4,2.1401013E3,8.07563E3,8.6846893E2,1.2716323E3,2.9653018E3,5.110328E3,6.9538605E2,1.7308292E2,4.266121E2,8.4502026E2,1.2336022E3,1.7316997E3,2.9263376E3,2.1839905E3,4.0194336E2,2.9344266E2,1.0767734E2,6.540559E1,2.6041092E2,1.662012E2,1.3652777E2,7.084925E2,4.6405084E2,7.6955133E2,6.580065E2,1.0736932E3,1.3618422E3,1.5644955E3,4.1038354E2,1.773607E3],"tree_param":{"num_deleted":"0","num_feature":"26","num_nodes":"31","size_leaf_vector":"1"}},{"base_weights":[7.5572804E-3,5.068901E-1,-1.24991216E-1,9.684571E-2,8.103056E-1,2.2819316E-1,-3.4106708E-1,4.5568624E-1,-1.1709605E-1,1.1010274E0,6.6062254E-1,-3.0855685E-2,5.5696297E-1,-1.6718444E-1,-5.729881E-1,2.337484E-3,8.715778E-3,-3.2443153E-3,9.330448E-4,8.819971E-3,1.4126706E-2,4.934013E-3,1.0003736E-2,2.0805069E-3,-1.8226457E-3,3.6164143E-3,7.182737E-3,-3.5304974E-3,9.106502E-4,-7.927052E-3,-4.4539697E-3],"categories":[],"categories_nodes":[],"categories_segments":[],"categories_sizes":[],"default_left":[0,0,0,0,0,0,0,0,0,0,0,0,0,0,0,0,0,0,0,0,0,0,0,0,0,0,0,0,0,0,0],"id":2,"left_children":[1,3,5,7,9,11,13,15,17,19,21,23,25,27,29,-1,-1,-1,-1,-1,-1,-1,-1,-1,-1,-1,-1,-1,-1,-1,-1],"loss_changes":[6.799986E2,2.6805457E2,6.1967285E2,7.050398E1,5.3167236E1,2.625318E2,2.030564E2,3.1452858E1,2.5144554E1,2.738443E1,4.6097168E1,6.2432404E1,4.254071E1,1.382933E2,6.014856E1,0E0,0E0,0E0,0E0,0E0,0E0,0E0,0E0,0E0,0E0,0E0,0E0,0E0,0E0,0E0,0E0],"parents":[2147483647,0,0,1,1,2,2,3,3,4,4,5,5,6,6,7,7,8,8,9,9,10,10,11,11,12,12,13,13,14,14],"right_children":[2,4,6,8,10,12,14,16,18,20,22,24,26,28,30,-1,-1,-1,-1,-1,-1,-1,-1,-1,-1,-1,-1,-1,-1,-1,-1],"split_conditions":[1.19E3,1.165E3,5.1E1,-2.341195E0,-2.2764416E0,6.3E1,1.503E3,1.3076923E0,1E0,1.5384616E0,1.476E3,1.4E1,1.728E3,1.394E3,1.407E3,2.337484E-3,8.715778E-3,-3.2443153E-3,9.330448E-4,8.819971E-3,1.4126706E-2,4.934013E-3,1.0003736E-2,2.0805069E-3,-1.8226457E-3,3.6164143E-3,7.182737E-3,-3.5304974E-3,9.106502E-4,-7.927052E-3,-4.4539697E-3],"split_indices":[1,0,20,18,18,23,1,9,2,9,0,20,0,0,0,0,0,0,0,0,0,0,0,0,0,0,0,0,0,0,0],"split_type":[0,0,0,0,0,0,0,0,0,0,0,0,0,0,0,0,0,0,0,0,0,0,0,0,0,0,0,0,0,0,0],"sum_hessian":[1.0272126E4,2.1541711E3,8.117955E3,9.166726E2,1.2374985E3,3.0813357E3,5.036619E3,3.4196732E2,5.747053E2,4.1843594E2,8.190626E2,1.7239126E3,1.3574231E3,2.879464E3,2.1571553E3,2.2399556E2,1.1797175E2,2.8918808E2,2.8551724E2,2.4797995E2,1.70456E2,5.5054395E2,2.6851868E2,6.685853E2,1.0553273E3,6.154516E2,7.419715E2,1.6741736E3,1.2052904E3,7.9056195E2,1.3665933E3],"tree_param":{"num_deleted":"0","num_feature":"26","num_nodes":"31","size_leaf_vector":"1"}},{"base_weights":[8.54769E-4,4.3608284E-1,-1.4089365E-1,1.1350571E0,3.4659326E-1,1.7756309E-1,-3.7280387E-1,1.3511003E0,8.8744485E-1,2.7493516E-1,9.857823E-1,4.778326E-1,-3.5017185E-2,-2.0306602E-1,-5.951986E-1,1.0978186E-2,1.664348E-2,1.2067782E-2,7.430723E-3,-1.2951898E-3,3.8210454E-3,1.2270039E-2,4.993381E-3,1.000918E-2,4.2955442E-3,1.4042807E-3,-2.1389998E-3,-7.442714E-4,-3.7931143E-3,-6.5831146E-3,-3.3923471E-3],"categories":[],"categories_nodes":[],"categories_segments":[],"categories_sizes":[],"default_left":[0,0,0,0,0,0,0,0,0,0,0,0,0,0,0,0,0,0,0,0,0,0,0,0,0,0,0,0,0,0,0],"id":3,"left_children":[1,3,5,7,9,11,13,15,17,19,21,23,25,27,29,-1,-1,-1,-1,-1,-1,-1,-1,-1,-1,-1,-1,-1,-1,-1,-1],"loss_changes":[6.343555E2,1.5761902E2,5.7289777E2,1.4115173E1,1.02367615E2,2.0868109E2,1.693086E2,1.0150665E1,5.3873596E0,8.744882E1,2.5848557E1,3.3790985E1,6.0127586E1,5.7718376E1,3.1153748E1,0E0,0E0,0E0,0E0,0E0,0E0,0E0,0E0,0E0,0E0,0E0,0E0,0E0,0E0,0E0,0E0],"parents":[2147483647,0,0,1,1,2,2,3,3,4,4,5,5,6,6,7,7,8,8,9,9,10,10,11,11,12,12,13,13,14,14],"right_children":[2,4,6,8,10,12,14,16,18,20,22,24,26,28,30,-1,-1,-1,-1,-1,-1,-1,-1,-1,-1,-1,-1,-1,-1,-1,-1],"split_conditions":[1.225E3,6.6E1,5.7E1,3.7E1,4E0,1.593E3,1.506E3,2.5E0,1E0,-1.9651612E0,2.2E0,8E0,2.1E1,1.3561741E0,7.709524E0,1.0978186E-2,1.664348E-2,1.2067782E-2,7.430723E-3,-1.2951898E-3,3.8210454E-3,1.2270039E-2,4.993381E-3,1.000918E-2,4.2955442E-3,1.4042807E-3,-2.1389998E-3,-7.442714E-4,-3.7931143E-3,-6.5831146E-3,-3.3923471E-3],"split_indices":[1,20,20,20,14,1,1,14,5,11,10,20,20,10,21,0,0,0,0,0,0,0,0,0,0,0,0,0,0,0,0],"split_type":[0,0,0,0,0,0,0,0,0,0,0,0,0,0,0,0,0,0,0,0,0,0,0,0,0,0,0,0,0,0,0],"sum_hessian":[1.0280477E4,2.5251409E3,7.755336E3,2.8527405E2,2.239867E3,3.2679941E3,4.487342E3,1.4996878E2,1.3530528E2,2.0153594E3,2.2450749E2,1.3540922E3,1.913902E3,2.5460435E3,1.9412982E3,8.541205E1,6.455673E1,3.9835518E1,9.546976E1,4.2211218E2,1.5932472E3,1.4906543E2,7.544207E1,1.1274856E2,1.2413436E3,9.663435E2,9.4755853E2,1.4726215E3,1.073422E3,1.5560514E3,3.8524686E2],"tree_param":{"num_deleted":"0","num_feature":"26","num_nodes":"31","size_leaf_vector":"1"}},{"base_weights":[-7.5495536E-3,5.128534E-1,-1.0936778E-1,2.1844449E-2,6.886164E-1,2.4861461E-1,-2.4916892E-1,-1.647819E-1,4.7418293E-1,9.116319E-1,4.7539985E-1,4.403841E-1,3.6410384E-2,-1.421169E-1,-5.317145E-1,-3.103093E-7,-5.53717E-3,7.857001E-3,-6.465534E-4,6.6088377E-3,1.1517823E-2,2.4795302E-3,6.4205634E-3,6.3216095E-3,1.8440712E-3,-1.3639712E-3,1.7161858E-3,-3.1336113E-3,1.2957164E-4,-6.796605E-3,-2.7361645E-3],"categories":[],"categories_nodes":[],"categories_segments":[],"categories_sizes":[],"default_left":[0,0,0,0,0,0,0,0,0,0,0,0,0,0,0,0,0,0,0,0,0,0,0,0,0,0,0,0,0,0,0],"id":4,"left_children":[1,3,5,7,9,11,13,15,17,19,21,23,25,27,29,-1,-1,-1,-1,-1,-1,-1,-1,-1,-1,-1,-1,-1,-1,-1,-1],"loss_changes":[5.4447034E2,1.4509827E2,4.301657E2,3.7583015E1,5.8443726E1,9.82254E1,1.8688092E2,2.0200676E1,2.1875586E1,3.5616302E1,2.3914474E1,6.2131836E1,2.6825336E1,1.1907801E2,6.46521E1,0E0,0E0,0E0,0E0,0E0,0E0,0E0,0E0,0E0,0E0,0E0,0E0,0E0,0E0,0E0,0E0],"parents":[2147483647,0,0,1,1,2,2,3,3,4,4,5,5,6,6,7,7,8,8,9,9,10,10,11,11,12,12,13,13,14,14],"right_children":[2,4,6,8,10,12,14,16,18,20,22,24,26,28,30,-1,-1,-1,-1,-1,-1,-1,-1,-1,-1,-1,-1,-1,-1,-1,-1],"split_conditions":[-1.5291371E0,1.111E3,4E1,1.3E0,-2.2764416E0,5.2020365E-1,7.709524E0,1E0,-2.0460467E0,1.3846154E0,1.384E3,7.7978215E0,1E0,1E0,7.709524E0,-3.103093E-7,-5.53717E-3,7.857001E-3,-6.465534E-4,6.6088377E-3,1.1517823E-2,2.4795302E-3,6.4205634E-3,6.3216095E-3,1.8440712E-3,-1.3639712E-3,1.7161858E-3,-3.1336113E-3,1.2957164E-4,-6.796605E-3,-2.7361645E-3],"split_indices":[18,0,20,9,18,18,24,5,18,9,0,24,2,2,21,0,0,0,0,0,0,0,0,0,0,0,0,0,0,0,0],"split_type":[0,0,0,0,0,0,0,0,0,0,0,0,0,0,0,0,0,0,0,0,0,0,0,0,0,0,0,0,0,0,0],"sum_hessian":[1.0273584E4,1.680475E3,8.593109E3,4.4327438E2,1.2372006E3,2.4131326E3,6.1799766E3,3.1425458E2,1.290198E2,6.0310376E2,6.340968E2,1.2670348E3,1.1460978E3,4.4829585E3,1.6970184E3,2.2144972E2,9.2804855E1,8.146469E1,4.7555115E1,2.9687732E2,3.062264E2,2.6919577E2,3.6490103E2,7.2351263E2,5.435222E2,5.0309326E2,6.430045E2,2.1299211E3,2.353037E3,1.0776555E3,6.193629E2],"tree_param":{"num_deleted":"0","num_feature":"26","num_nodes":"31","size_leaf_vector":"1"}},{"base_weights":[5.1590814E-3,4.448986E-1,-1.2254284E-1,2.4179466E-2,7.210619E-1,2.1975505E-1,-3.3139828E-1,1.628201E-1,-3.1132647E-1,9.585436E-1,5.1067406E-1,-2.4607657E-2,5.4021287E-1,-1.6734713E-1,-5.3756434E-1,8.426138E-4,7.167447E-3,-5.2304724E-3,-2.2647594E-4,8.556708E-3,1.3140411E-2,2.8678998E-3,8.932524E-3,2.65335E-3,-1.4089559E-3,3.6276781E-3,7.03409E-3,-4.4443007E-3,1.3444386E-4,-7.783975E-3,-3.993492E-3],"categories":[],"categories_nodes":[],"categories_segments":[],"categories_sizes":[],"default_left":[0,0,0,0,0,0,0,0,0,0,0,0,0,0,0,0,0,0,0,0,0,0,0,0,0,0,0,0,0,0,0],"id":5,"left_children":[1,3,5,7,9,11,13,15,17,19,21,23,25,27,29,-1,-1,-1,-1,-1,-1,-1,-1,-1,-1,-1,-1,-1,-1,-1,-1],"loss_changes":[5.8007214E2,2.7008167E2,5.7236163E2,4.294993E1,6.962982E1,2.3760455E2,1.6807227E2,2.8366428E1,1.6491348E1,2.2943665E1,6.3666748E1,5.811021E1,3.77583E1,1.3877994E2,7.3011536E1,0E0,0E0,0E0,0E0,0E0,0E0,0E0,0E0,0E0,0E0,0E0,0E0,0E0,0E0,0E0,0E0],"parents":[2147483647,0,0,1,1,2,2,3,3,4,4,5,5,6,6,7,7,8,8,9,9,10,10,11,11,12,12,13,13,14,14],"right_children":[2,4,6,8,10,12,14,16,18,20,22,24,26,28,30,-1,-1,-1,-1,-1,-1,-1,-1,-1,-1,-1,-1,-1,-1,-1,-1],"split_conditions":[1.207E3,1.156E3,5.1E1,1E0,1.056E3,6.3E1,1.503E3,3.9333334E0,1E0,1.516E3,1.451E3,1.1E1,1.734E3,1.323E3,1.407E3,8.426138E-4,7.167447E-3,-5.2304724E-3,-2.2647594E-4,8.556708E-3,1.3140411E-2,2.8678998E-3,8.932524E-3,2.65335E-3,-1.4089559E-3,3.6276781E-3,7.03409E-3,-4.4443007E-3,1.3444386E-4,-7.783975E-3,-3.993492E-3],"split_indices":[1,0,20,5,1,23,1,17,9,0,0,20,0,0,0,0,0,0,0,0,0,0,0,0,0,0,0,0,0,0,0],"split_type":[0,0,0,0,0,0,0,0,0,0,0,0,0,0,0,0,0,0,0,0,0,0,0,0,0,0,0,0,0,0,0],"sum_hessian":[1.0327761E4,2.3236895E3,8.0040713E3,9.2127167E2,1.4024178E3,3.0330632E3,4.9710083E3,6.5225574E2,2.6901596E2,6.571187E2,7.452991E2,1.7213693E3,1.3116941E3,2.7692573E3,2.2017507E3,5.722501E2,8.0005554E1,1.5472604E2,1.1428993E2,5.1228284E2,1.4483592E2,4.712653E2,2.740338E2,4.923938E2,1.2289755E3,6.299571E2,6.8173694E2,1.0928641E3,1.6763932E3,8.011515E2,1.4005994E3],"tree_param":{"num_deleted":"0","num_feature":"26","num_nodes":"31","size_leaf_vector":"1"}},{"base_weights":[4.852667E-3,4.7467068E-1,-1.24622546E-1,2.3895E-2,7.308457E-1,2.354981E-1,-3.186814E-1,5.5873793E-1,-1.0289187E-1,6.0495067E-1,1.1009885E0,4.9838543E-1,1.0829525E-3,-1.5562767E-1,-5.306203E-1,3.353677E-3,9.191181E-3,-2.7696535E-3,1.4965987E-3,8.225361E-3,3.7070524E-3,1.3963431E-2,9.298142E-3,2.815343E-3,6.221772E-3,2.3021586E-3,-1.6510604E-3,-3.327864E-3,1.0683115E-3,-7.671896E-3,-4.0316246E-3],"categories":[],"categories_nodes":[],"categories_segments":[],"categories_sizes":[],"default_left":[0,0,0,0,0,0,0,0,0,0,0,0,0,0,0,0,0,0,0,0,0,0,0,0,0,0,0,0,0,0,0],"id":6,"left_children":[1,3,5,7,9,11,13,15,17,19,21,23,25,27,29,-1,-1,-1,-1,-1,-1,-1,-1,-1,-1,-1,-1,-1,-1,-1,-1],"loss_changes":[6.2118665E2,2.5475354E2,5.595482E2,5.4340282E1,6.488672E1,1.7279207E2,1.7971014E2,1.205257E1,2.8526842E1,5.331012E1,1.6690521E1,3.5305206E1,5.651898E1,1.3682465E2,6.7890625E1,0E0,0E0,0E0,0E0,0E0,0E0,0E0,0E0,0E0,0E0,0E0,0E0,0E0,0E0,0E0,0E0],"parents":[2147483647,0,0,1,1,2,2,3,3,4,4,5,5,6,6,7,7,8,8,9,9,10,10,11,11,12,12,13,13,14,14],"right_children":[2,4,6,8,10,12,14,16,18,20,22,24,26,28,30,-1,-1,-1,-1,-1,-1,-1,-1,-1,-1,-1,-1,-1,-1,-1,-1],"split_conditions":[1.19E3,1.129E3,4.7E1,-3.3430312E0,1.513E3,1.64E3,1.503E3,4.4E0,1.0666667E0,1.056E3,3.2E1,1E0,1.4E1,1.41E3,1.407E3,3.353677E-3,9.191181E-3,-2.7696535E-3,1.4965987E-3,8.225361E-3,3.7070524E-3,1.3963431E-2,9.298142E-3,2.815343E-3,6.221772E-3,2.3021586E-3,-1.6510604E-3,-3.327864E-3,1.0683115E-3,-7.671896E-3,-4.0316246E-3],"split_indices":[1,0,20,18,0,1,1,14,9,1,20,2,20,0,0,0,0,0,0,0,0,0,0,0,0,0,0,0,0,0,0],"split_type":[0,0,0,0,0,0,0,0,0,0,0,0,0,0,0,0,0,0,0,0,0,0,0,0,0,0,0,0,0,0,0],"sum_hessian":[1.0209911E4,2.2052397E3,8.0046714E3,7.995005E2,1.4057394E3,2.8029473E3,5.201724E3,1.5255391E2,6.469466E2,1.0509268E3,3.5481265E2,1.320704E3,1.4822434E3,2.9408982E3,2.260826E3,9.5371506E1,5.718241E1,3.829194E2,2.640272E2,5.435363E2,5.0739038E2,1.2755825E2,2.272544E2,4.8114224E2,8.395617E2,6.229569E2,8.592865E2,1.755604E3,1.1852943E3,7.8983167E2,1.4709943E3],"tree_param":{"num_deleted":"0","num_feature":"26","num_nodes":"31","size_leaf_vector":"1"}},{"base_weights":[-2.4821279E-3,4.4517103E-1,-1.1787394E-1,2.2828549E-1,7.402473E-1,2.5682762E-1,-2.612075E-1,-5.4244407E-2,4.18121E-1,1.0377231E0,5.4547125E-1,4.245458E-2,5.594362E-1,-5.3574914E-1,-1.2616862E-1,-2.6171564E-3,2.9627874E-3,3.428481E-3,1.018102E-2,8.608462E-3,1.2774084E-2,-4.5489687E-3,6.1024204E-3,2.6004845E-3,-8.494798E-4,6.546615E-3,3.1212505E-3,-8.04134E-3,-4.3279985E-3,-2.904064E-3,1.0649617E-3],"categories":[],"categories_nodes":[],"categories_segments":[],"categories_sizes":[],"default_left":[0,0,0,0,0,0,0,0,0,0,0,0,0,0,0,0,0,0,0,0,0,0,0,0,0,0,0,0,0,0,0],"id":7,"left_children":[1,3,5,7,9,11,13,15,17,19,21,23,25,27,29,-1,-1,-1,-1,-1,-1,-1,-1,-1,-1,-1,-1,-1,-1,-1,-1],"loss_changes":[5.3144556E2,1.347706E2,4.393792E2,6.528001E1,5.116336E1,1.4682715E2,2.1929865E2,3.570189E1,3.252237E1,1.3829895E1,3.5372757E1,3.6785072E1,2.1900085E1,5.3545227E1,1.5163763E2,0E0,0E0,0E0,0E0,0E0,0E0,0E0,0E0,0E0,0E0,0E0,0E0,0E0,0E0,0E0,0E0],"parents":[2147483647,0,0,1,1,2,2,3,3,4,4,5,5,6,6,7,7,8,8,9,9,10,10,11,11,12,12,13,13,14,14],"right_children":[2,4,6,8,10,12,14,16,18,20,22,24,26,28,30,-1,-1,-1,-1,-1,-1,-1,-1,-1,-1,-1,-1,-1,-1,-1,-1],"split_conditions":[-1.2682987E0,1.4E0,3.7E1,1.165E3,-2.341195E0,6.3E1,6.5E1,2.8E0,4E0,3.3333333E0,1.056E3,1.1E1,4.9253467E-1,1.407E3,1.41E3,-2.6171564E-3,2.9627874E-3,3.428481E-3,1.018102E-2,8.608462E-3,1.2774084E-2,-4.5489687E-3,6.1024204E-3,2.6004845E-3,-8.494798E-4,6.546615E-3,3.1212505E-3,-8.04134E-3,-4.3279985E-3,-2.904064E-3,1.0649617E-3],"split_indices":[18,9,20,0,18,23,23,14,14,14,0,20,18,0,0,0,0,0,0,0,0,0,0,0,0,0,0,0,0,0,0],"split_type":[0,0,0,0,0,0,0,0,0,0,0,0,0,0,0,0,0,0,0,0,0,0,0,0,0,0,0,0,0,0,0],"sum_hessian":[1.0286249E4,2.1075034E3,8.178746E3,1.215711E3,8.917923E2,2.2627332E3,5.9160127E3,4.8886035E2,7.2685065E2,3.5115533E2,5.4063696E2,1.3251294E3,9.376038E2,1.9495334E3,3.966479E3,3.0725342E2,1.8160695E2,6.4722235E2,7.962828E1,2.0469292E2,1.4646243E2,3.2509705E1,5.0812726E2,4.8896808E2,8.361613E2,6.7576013E2,2.618437E2,5.386035E2,1.4109299E3,2.3250095E3,1.6414695E3],"tree_param":{"num_deleted":"0","num_feature":"26","num_nodes":"31","size_leaf_vector":"1"}},{"base_weights":[6.1946055E-3,4.820449E-1,-1.2640913E-1,3.3556648E-2,7.563122E-1,2.551665E-1,-2.9935864E-1,3.850426E-1,-1.8529636E-1,6.145977E-1,1.0854802E0,5.692605E-1,3.552975E-2,-1.4659074E-1,-4.862362E-1,-1.5596367E-4,6.6304696E-3,-3.377166E-3,8.8514574E-4,5.1630363E-3,1.1654779E-2,1.4241556E-2,9.570713E-3,4.841754E-3,9.690974E-3,2.709129E-3,-8.785211E-4,-3.8586461E-3,5.8895256E-4,-6.7311055E-3,-2.8889107E-3],"categories":[],"categories_nodes":[],"categories_segments":[],"categories_sizes":[],"default_left":[0,0,0,0,0,0,0,0,0,0,0,0,0,0,0,0,0,0,0,0,0,0,0,0,0,0,0,0,0,0,0],"id":8,"left_children":[1,3,5,7,9,11,13,15,17,19,21,23,25,27,29,-1,-1,-1,-1,-1,-1,-1,-1,-1,-1,-1,-1,-1,-1,-1,-1],"loss_changes":[6.4672424E2,2.747296E2,5.290544E2,6.535424E1,6.3987183E1,1.7248177E2,1.5740775E2,3.6317825E1,2.188573E1,5.1986267E1,1.6720612E1,3.4535004E1,4.2790745E1,1.4931833E2,9.128845E1,0E0,0E0,0E0,0E0,0E0,0E0,0E0,0E0,0E0,0E0,0E0,0E0,0E0,0E0,0E0,0E0],"parents":[2147483647,0,0,1,1,2,2,3,3,4,4,5,5,6,6,7,7,8,8,9,9,10,10,11,11,12,12,13,13,14,14],"right_children":[2,4,6,8,10,12,14,16,18,20,22,24,26,28,30,-1,-1,-1,-1,-1,-1,-1,-1,-1,-1,-1,-1,-1,-1,-1,-1],"split_conditions":[1.19E3,1.144E3,4E1,-2.341195E0,1.496E3,1.587E3,1.503E3,1E0,1.015E3,3.75E0,2.8E1,1.892E3,1.1E1,1.354E3,1.516E3,-1.5596367E-4,6.6304696E-3,-3.377166E-3,8.8514574E-4,5.1630363E-3,1.1654779E-2,1.4241556E-2,9.570713E-3,4.841754E-3,9.690974E-3,2.709129E-3,-8.785211E-4,-3.8586461E-3,5.8895256E-4,-6.7311055E-3,-2.8889107E-3],"split_indices":[1,0,20,18,0,1,1,6,0,14,20,0,20,0,0,0,0,0,0,0,0,0,0,0,0,0,0,0,0,0,0],"split_type":[0,0,0,0,0,0,0,0,0,0,0,0,0,0,0,0,0,0,0,0,0,0,0,0,0,0,0,0,0,0,0],"sum_hessian":[1.0247308E4,2.2326777E3,8.01463E3,8.4767004E2,1.3850076E3,2.4995151E3,5.5151147E3,3.2498035E2,5.226897E2,9.7018665E2,4.1482092E2,1.0279263E3,1.471589E3,3.0354734E3,2.479641E3,1.3351396E2,1.9146638E2,3.3562598E2,1.8706375E2,8.2493085E2,1.4525581E2,1.112668E2,3.035541E2,8.4938794E2,1.785383E2,5.0567883E2,9.6591016E2,1.4020304E3,1.633443E3,1.2723702E3,1.207271E3],"tree_param":{"num_deleted":"0","num_feature":"26","num_nodes":"31","size_leaf_vector":"1"}},{"base_weights":[3.6522615E-4,4.5760766E-1,-1.2389295E-1,7.015753E-1,1.7671387E-1,2.515499E-1,-2.9705548E-1,1.2254905E0,5.926758E-1,-1.762786E-2,4.1114366E-1,1.658313E-2,5.813148E-1,-1.2506099E-1,-5.0304383E-1,1.2701929E-2,2.4312455E-3,8.161224E-3,3.89548E-3,1.5103798E-3,-2.3211895E-3,2.394758E-3,7.282684E-3,2.3451268E-3,-9.769703E-4,3.5286876E-3,7.032469E-3,-1.7880242E-3,3.585743E-3,-6.046159E-3,-2.8088146E-3],"categories":[],"categories_nodes":[],"categories_segments":[],"categories_sizes":[],"default_left":[0,0,0,0,0,0,0,0,0,0,0,0,0,0,0,0,0,0,0,0,0,0,0,0,0,0,0,0,0,0,0],"id":9,"left_children":[1,3,5,7,9,11,13,15,17,19,21,23,25,27,29,-1,-1,-1,-1,-1,-1,-1,-1,-1,-1,-1,-1,-1,-1,-1,-1],"loss_changes":[5.7948096E2,1.4923001E2,5.214638E2,6.580115E1,4.622209E1,1.9617355E2,1.9440201E2,8.461975E0,4.3586975E1,2.0134138E1,2.4857895E1,3.686994E1,2.909488E1,7.7845406E1,5.618286E1,0E0,0E0,0E0,0E0,0E0,0E0,0E0,0E0,0E0,0E0,0E0,0E0,0E0,0E0,0E0,0E0],"parents":[2147483647,0,0,1,1,2,2,3,3,4,4,5,5,6,6,7,7,8,8,9,9,10,10,11,11,12,12,13,13,14,14],"right_children":[2,4,6,8,10,12,14,16,18,20,22,24,26,28,30,-1,-1,-1,-1,-1,-1,-1,-1,-1,-1,-1,-1,-1,-1,-1,-1],"split_conditions":[1.19E3,1.6E0,4E1,5.7E1,1.0666667E0,6.5E1,1.503E3,2E0,9.99E2,2.4E0,2.6E0,1.1E1,1E0,7.7978215E0,7.709524E0,1.2701929E-2,2.4312455E-3,8.161224E-3,3.89548E-3,1.5103798E-3,-2.3211895E-3,2.394758E-3,7.282684E-3,2.3451268E-3,-9.769703E-4,3.5286876E-3,7.032469E-3,-1.7880242E-3,3.585743E-3,-6.046159E-3,-2.8088146E-3],"split_indices":[1,10,20,20,9,23,1,7,1,10,17,20,2,21,21,0,0,0,0,0,0,0,0,0,0,0,0,0,0,0,0],"split_type":[0,0,0,0,0,0,0,0,0,0,0,0,0,0,0,0,0,0,0,0,0,0,0,0,0,0,0,0,0,0,0],"sum_hessian":[1.0197239E4,2.1784275E3,8.0188115E3,1.165043E3,1.0133845E3,2.5309255E3,5.4878857E3,1.9872478E2,9.6631824E2,5.5457117E2,4.5881332E2,1.4785018E3,1.0524238E3,2.9915947E3,2.496291E3,1.8979517E2,8.929614E0,4.5870804E2,5.0761017E2,3.1061432E2,2.4395686E2,2.9881314E2,1.6000017E2,5.082428E2,9.7025903E2,3.6760022E2,6.848236E2,2.6929817E3,2.9861316E2,1.711895E3,7.84396E2],"tree_param":{"num_deleted":"0","num_feature":"26","num_nodes":"31","size_leaf_vector":"1"}},{"base_weights":[-8.378741E-3,4.386255E-1,-1.2783194E-1,4.096797E-2,6.9356084E-1,1.9139396E-1,-3.098871E-1,3.9330396E-1,-1.6226931E-1,9.9423766E-1,5.305146E-1,-2.169908E-2,4.699405E-1,-6.459039E-1,-2.0358722E-1,-5.0454086E-4,5.581153E-3,-5.654857E-3,-6.6607934E-4,7.842244E-3,1.221541E-2,3.9428105E-3,9.394221E-3,1.7555974E-3,-1.4364822E-3,2.5002009E-3,5.9711062E-3,-8.251147E-3,-5.298823E-3,-3.8944574E-3,2.5492426E-4],"categories":[],"categories_nodes":[],"categories_segments":[],"categories_sizes":[],"default_left":[0,0,0,0,0,0,0,0,0,0,0,0,0,0,0,0,0,0,0,0,0,0,0,0,0,0,0,0,0,0,0],"id":10,"left_children":[1,3,5,7,9,11,13,15,17,19,21,23,25,27,29,-1,-1,-1,-1,-1,-1,-1,-1,-1,-1,-1,-1,-1,-1,-1,-1],"loss_changes":[5.4288995E2,2.1732828E2,4.6633737E2,6.0116516E1,6.351831E1,1.730017E2,1.8237854E2,2.2486664E1,2.0504217E1,2.0914764E1,4.6936874E1,3.9769543E1,3.518091E1,2.5085876E1,1.6534052E2,0E0,0E0,0E0,0E0,0E0,0E0,0E0,0E0,0E0,0E0,0E0,0E0,0E0,0E0,0E0,0E0],"parents":[2147483647,0,0,1,1,2,2,3,3,4,4,5,5,6,6,7,7,8,8,9,9,10,10,11,11,12,12,13,13,14,14],"right_children":[2,4,6,8,10,12,14,16,18,20,22,24,26,28,30,-1,-1,-1,-1,-1,-1,-1,-1,-1,-1,-1,-1,-1,-1,-1,-1],"split_conditions":[1.19E3,1.144E3,4.9E1,-2.341195E0,-2.2764416E0,6.3E1,5.3E1,7.5E-1,-2.8023033E0,1.4166666E0,1.496E3,1.4E1,1E0,1.454E3,1.41E3,-5.0454086E-4,5.581153E-3,-5.654857E-3,-6.6607934E-4,7.842244E-3,1.221541E-2,3.9428105E-3,9.394221E-3,1.7555974E-3,-1.4364822E-3,2.5002009E-3,5.9711062E-3,-8.251147E-3,-5.298823E-3,-3.8944574E-3,2.5492426E-4],"split_indices":[1,0,20,18,18,23,23,9,11,9,0,20,2,0,0,0,0,0,0,0,0,0,0,0,0,0,0,0,0,0,0],"split_type":[0,0,0,0,0,0,0,0,0,0,0,0,0,0,0,0,0,0,0,0,0,0,0,0,0,0,0,0,0,0,0],"sum_hessian":[1.0165174E4,2.1430442E3,8.0221304E3,8.376334E2,1.3054108E3,2.9134575E3,5.108673E3,3.0607712E2,5.315563E2,4.5719348E2,8.482173E2,1.6511901E3,1.2622673E3,1.2265234E3,3.8821494E3,8.307901E1,2.2299811E2,1.0098581E2,4.3057047E2,2.399478E2,2.1724568E2,6.377168E2,2.1050044E2,6.3064716E2,1.0205429E3,4.635675E2,7.986999E2,4.79602E2,7.4692145E2,2.142876E3,1.7392733E3],"tree_param":{"num_deleted":"0","num_feature":"26","num_nodes":"31","size_leaf_vector":"1"}},{"base_weights":[1.8273729E-3,4.735343E-1,-1.24754936E-1,7.421815E-1,1.9986764E-1,1.7606081E-1,-3.3235443E-1,5.175641E-1,9.955303E-1,1.05185196E-1,8.188472E-1,4.7155046E-1,-4.1944813E-2,-1.8543483E-1,-5.4148114E-1,1.1199262E-2,4.0157763E-3,8.258203E-3,1.3582174E-2,-8.271864E-4,3.846515E-3,2.549693E-3,8.766269E-3,2.5946996E-3,5.9299595E-3,1.2610137E-3,-2.2795638E-3,-4.77744E-3,-1.2696014E-3,-5.955545E-3,-2.5850832E-3],"categories":[],"categories_nodes":[],"categories_segments":[],"categories_sizes":[],"default_left":[0,0,0,0,0,0,0,0,0,0,0,0,0,0,0,0,0,0,0,0,0,0,0,0,0,0,0,0,0,0,0],"id":11,"left_children":[1,3,5,7,9,11,13,15,17,19,21,23,25,27,29,-1,-1,-1,-1,-1,-1,-1,-1,-1,-1,-1,-1,-1,-1,-1,-1],"loss_changes":[6.088922E2,1.5847284E2,5.0215103E2,6.1420715E1,6.263155E1,2.1154446E2,1.4607E2,4.0001602E1,3.0294006E1,4.8832916E1,4.3974304E0,3.575406E1,5.912181E1,4.772751E1,2.987622E1,0E0,0E0,0E0,0E0,0E0,0E0,0E0,0E0,0E0,0E0,0E0,0E0,0E0,0E0,0E0,0E0],"parents":[2147483647,0,0,1,1,2,2,3,3,4,4,5,5,6,6,7,7,8,8,9,9,10,10,11,11,12,12,13,13,14,14],"right_children":[2,4,6,8,10,12,14,16,18,20,22,24,26,28,30,-1,-1,-1,-1,-1,-1,-1,-1,-1,-1,-1,-1,-1,-1,-1,-1],"split_conditions":[1.19E3,1.5E0,5.7E1,2.1333334E0,4E0,1.593E3,1.503E3,5.7E1,1.9090909E0,1.1818181E0,2.6E0,1E0,2.3E1,-1.3728673E0,7.7978215E0,1.1199262E-2,4.0157763E-3,8.258203E-3,1.3582174E-2,-8.271864E-4,3.846515E-3,2.549693E-3,8.766269E-3,2.5946996E-3,5.9299595E-3,1.2610137E-3,-2.2795638E-3,-4.77744E-3,-1.2696014E-3,-5.955545E-3,-2.5850832E-3],"split_indices":[1,10,20,17,14,1,1,20,9,9,17,2,20,11,21,0,0,0,0,0,0,0,0,0,0,0,0,0,0,0,0],"split_type":[0,0,0,0,0,0,0,0,0,0,0,0,0,0,0,0,0,0,0,0,0,0,0,0,0,0,0,0,0,0,0],"sum_hessian":[1.0195546E4,2.1565303E3,8.0390156E3,1.0873812E3,1.0691489E3,3.2826064E3,4.756409E3,5.7798584E2,5.0939542E2,9.283183E2,1.4083063E2,1.3931445E3,1.8894619E3,2.7948242E3,1.9615852E3,9.192556E1,4.8606027E2,3.4924997E2,1.6014545E2,5.5551355E2,3.7280475E2,1.3592549E1,1.2723808E2,5.0842227E2,8.847222E2,9.9283716E2,8.9662476E2,4.646942E2,2.33013E3,1.6459541E3,3.1563104E2],"tree_param":{"num_deleted":"0","num_feature":"26","num_nodes":"31","size_leaf_vector":"1"}},{"base_weights":[-1.2971584E-3,4.4601485E-1,-1.23587444E-1,3.0091906E-2,7.0475817E-1,-4.003424E-1,8.290278E-2,5.6913483E-1,-8.748195E-2,9.3596715E-1,5.022001E-1,-2.3414534E-1,-6.1626494E-1,-1.4352743E-1,3.404568E-1,4.023779E-3,8.0793435E-3,-3.5496943E-3,1.4047851E-3,8.324489E-3,1.29703395E-2,3.0020918E-3,8.194279E-3,-6.0062665E-3,-1.3014E-3,-9.144203E-3,-5.609109E-3,-2.5969543E-3,1.3968642E-3,2.1628998E-3,6.114071E-3],"categories":[],"categories_nodes":[],"categories_segments":[],"categories_sizes":[],"default_left":[0,0,0,0,0,0,0,0,0,0,0,0,0,0,0,0,0,0,0,0,0,0,0,0,0,0,0,0,0,0,0],"id":12,"left_children":[1,3,5,7,9,11,13,15,17,19,21,23,25,27,29,-1,-1,-1,-1,-1,-1,-1,-1,-1,-1,-1,-1,-1,-1,-1,-1],"loss_changes":[5.5786993E2,2.3561002E2,4.5771506E2,5.3334797E1,6.27442E1,1.2266858E2,2.6758218E2,5.6751747E0,4.2189445E1,2.2436035E1,4.5993393E1,7.3693695E1,2.4043152E1,8.037749E1,7.2083786E1,0E0,0E0,0E0,0E0,0E0,0E0,0E0,0E0,0E0,0E0,0E0,0E0,0E0,0E0,0E0,0E0],"parents":[2147483647,0,0,1,1,2,2,3,3,4,4,5,5,6,6,7,7,8,8,9,9,10,10,11,11,12,12,13,13,14,14],"right_children":[2,4,6,8,10,12,14,16,18,20,22,24,26,28,30,-1,-1,-1,-1,-1,-1,-1,-1,-1,-1,-1,-1,-1,-1,-1,-1],"split_conditions":[1.19E3,1.144E3,1.5E3,-3.3430312E0,1.016E3,1.458E3,6.5E1,4.4E0,1E0,1.516E3,1.454E3,1.165E3,1.2E3,1.85E3,1.734E3,4.023779E-3,8.0793435E-3,-3.5496943E-3,1.4047851E-3,8.324489E-3,1.29703395E-2,3.0020918E-3,8.194279E-3,-6.0062665E-3,-1.3014E-3,-9.144203E-3,-5.609109E-3,-2.5969543E-3,1.3968642E-3,2.1628998E-3,6.114071E-3],"split_indices":[1,0,0,18,1,1,23,14,2,0,0,0,0,0,0,0,0,0,0,0,0,0,0,0,0,0,0,0,0,0,0],"split_type":[0,0,0,0,0,0,0,0,0,0,0,0,0,0,0,0,0,0,0,0,0,0,0,0,0,0,0,0,0,0,0],"sum_hessian":[1.01963545E4,2.1885295E3,8.007825E3,8.397577E2,1.3487719E3,3.4213354E3,4.5864897E3,1.4967937E2,6.900783E2,6.281508E2,7.20621E2,1.9344558E3,1.4868795E3,2.4409534E3,2.1455364E3,8.97151E1,5.9964268E1,3.1725546E2,3.7282288E2,4.9075613E2,1.3739468E2,4.4146793E2,2.7915305E2,4.265734E2,1.5078824E3,2.3039177E2,1.2564878E3,1.7310134E3,7.0993994E2,1.4725277E3,6.7300867E2],"tree_param":{"num_deleted":"0","num_feature":"26","num_nodes":"31","size_leaf_vector":"1"}},{"base_weights":[8.881691E-4,4.1968983E-1,-1.2272175E-1,-3.3949178E-2,6.4600104E-1,2.5320998E-1,-3.0171642E-1,2.6901928E-1,-1.8929452E-1,9.655135E-1,4.8953888E-1,5.019341E-1,2.494165E-2,-1.4320113E-1,-4.8343104E-1,-3.8560416E-4,5.04018E-3,-5.16651E-3,-6.155891E-4,1.5998406E-2,8.835375E-3,3.2570483E-3,8.659503E-3,6.350713E-3,3.1237742E-3,1.9998183E-3,-1.3330969E-3,-3.4904638E-3,1.2587287E-3,-7.39953E-3,-3.5829493E-3],"categories":[],"categories_nodes":[],"categories_segments":[],"categories_sizes":[],"default_left":[0,0,0,0,0,0,0,0,0,0,0,0,0,0,0,0,0,0,0,0,0,0,0,0,0,0,0,0,0,0,0],"id":13,"left_children":[1,3,5,7,9,11,13,15,17,19,21,23,25,27,29,-1,-1,-1,-1,-1,-1,-1,-1,-1,-1,-1,-1,-1,-1,-1,-1],"loss_changes":[5.3029266E2,2.3968146E2,5.322861E2,3.666377E1,7.738873E1,1.4486282E2,1.542803E2,1.910812E1,2.1496046E1,2.515561E1,6.43188E1,3.0618225E1,3.6913025E1,1.5863902E2,7.986151E1,0E0,0E0,0E0,0E0,0E0,0E0,0E0,0E0,0E0,0E0,0E0,0E0,0E0,0E0,0E0,0E0],"parents":[2147483647,0,0,1,1,2,2,3,3,4,4,5,5,6,6,7,7,8,8,9,9,10,10,11,11,12,12,13,13,14,14],"right_children":[2,4,6,8,10,12,14,16,18,20,22,24,26,28,30,-1,-1,-1,-1,-1,-1,-1,-1,-1,-1,-1,-1,-1,-1,-1,-1],"split_conditions":[1.207E3,1.111E3,4E1,-2.3938348E0,-2.2764416E0,1.64E3,1.503E3,1E0,-2.3978708E0,3.7E1,1.454E3,4E0,1.4E1,1.41E3,1.41E3,-3.8560416E-4,5.04018E-3,-5.16651E-3,-6.155891E-4,1.5998406E-2,8.835375E-3,3.2570483E-3,8.659503E-3,6.350713E-3,3.1237742E-3,1.9998183E-3,-1.3330969E-3,-3.4904638E-3,1.2587287E-3,-7.39953E-3,-3.5829493E-3],"split_indices":[1,0,20,18,18,1,1,6,11,20,0,5,20,0,0,0,0,0,0,0,0,0,0,0,0,0,0,0,0,0,0],"split_type":[0,0,0,0,0,0,0,0,0,0,0,0,0,0,0,0,0,0,0,0,0,0,0,0,0,0,0,0,0,0,0],"sum_hessian":[1.0241636E4,2.3334155E3,7.9082197E3,7.769251E2,1.5564904E3,2.5507078E3,5.357512E3,2.6309055E2,5.138346E2,5.099489E2,1.0465415E3,1.2200865E3,1.3306211E3,2.8623677E3,2.4951443E3,1.1431045E2,1.487801E2,1.4336891E2,3.7046567E2,5.6241108E1,4.5370782E2,7.304685E2,3.1607294E2,7.1532227E2,5.0476428E2,6.3167175E2,6.9894934E2,1.6215571E3,1.2408105E3,8.1648413E2,1.6786603E3],"tree_param":{"num_deleted":"0","num_feature":"26","num_nodes":"31","size_leaf_vector":"1"}},{"base_weights":[2.2873096E-3,3.8381615E-1,-1.3254298E-1,-2.307562E-2,5.8960825E-1,-4.3868902E-1,8.380966E-2,3.1432584E-1,-1.819549E-1,4.7434562E-1,9.296555E-1,-3.2370764E-1,-7.18211E-1,-1.2594528E-1,3.4273127E-1,1.1193124E-3,8.010977E-3,-3.8777895E-3,4.2168863E-4,7.3896525E-3,2.8683983E-3,1.0974416E-2,7.097797E-3,-6.850194E-3,-2.2389218E-3,-8.97881E-3,-6.112898E-3,-2.496232E-3,1.7430658E-3,1.9215534E-3,6.157371E-3],"categories":[],"categories_nodes":[],"categories_segments":[],"categories_sizes":[],"default_left":[0,0,0,0,0,0,0,0,0,0,0,0,0,0,0,0,0,0,0,0,0,0,0,0,0,0,0,0,0,0,0],"id":14,"left_children":[1,3,5,7,9,11,13,15,17,19,21,23,25,27,29,-1,-1,-1,-1,-1,-1,-1,-1,-1,-1,-1,-1,-1,-1,-1,-1],"loss_changes":[5.228805E2,2.2225781E2,4.9749274E2,4.7897945E1,6.8647095E1,9.972302E1,2.3908315E2,2.8094477E1,2.8034565E1,6.5208954E1,1.5644867E1,7.9383224E1,1.6848633E1,9.036554E1,8.086879E1,0E0,0E0,0E0,0E0,0E0,0E0,0E0,0E0,0E0,0E0,0E0,0E0,0E0,0E0,0E0,0E0],"parents":[2147483647,0,0,1,1,2,2,3,3,4,4,5,5,6,6,7,7,8,8,9,9,10,10,11,11,12,12,13,13,14,14],"right_children":[2,4,6,8,10,12,14,16,18,20,22,24,26,28,30,-1,-1,-1,-1,-1,-1,-1,-1,-1,-1,-1,-1,-1,-1,-1,-1],"split_conditions":[1.245E3,1.129E3,1.513E3,-2.341195E0,1.513E3,1.567E3,6.5E1,1.3076923E0,1.0666667E0,1.056E3,1.112E3,1.212E3,1.337E3,1.85E3,1.728E3,1.1193124E-3,8.010977E-3,-3.8777895E-3,4.2168863E-4,7.3896525E-3,2.8683983E-3,1.0974416E-2,7.097797E-3,-6.850194E-3,-2.2389218E-3,-8.97881E-3,-6.112898E-3,-2.496232E-3,1.7430658E-3,1.9215534E-3,6.157371E-3],"split_indices":[1,0,0,18,0,1,23,9,9,1,1,0,0,0,0,0,0,0,0,0,0,0,0,0,0,0,0,0,0,0,0],"split_type":[0,0,0,0,0,0,0,0,0,0,0,0,0,0,0,0,0,0,0,0,0,0,0,0,0,0,0,0,0,0,0],"sum_hessian":[1.0162547E4,2.6531345E3,7.5094126E3,8.914497E2,1.7616848E3,3.1090203E3,4.400392E3,2.850754E2,6.0637427E2,1.3174994E3,4.4418546E2,2.204399E3,9.0462134E2,2.4312922E3,1.9691002E3,2.0222313E2,8.28523E1,3.1571094E2,2.9066333E2,5.451746E2,7.723247E2,2.4967136E2,1.9451411E2,4.7589435E2,1.7285045E3,3.3473547E2,5.6988586E2,1.7221027E3,7.0918945E2,1.2702177E3,6.988825E2],"tree_param":{"num_deleted":"0","num_feature":"26","num_nodes":"31","size_leaf_vector":"1"}},{"base_weights":[3.443603E-3,4.4332153E-1,-1.09572954E-1,1.3666692E-1,6.5031755E-1,2.096963E-1,-3.0468482E-1,4.221504E-1,-6.8356685E-2,9.814777E-1,4.855968E-1,5.223933E-4,4.7261778E-1,-1.4957182E-1,-5.1718867E-1,1.1386272E-3,6.664211E-3,-5.027414E-3,6.812396E-4,7.5837267E-3,1.25137465E-2,9.575832E-3,3.6014856E-3,2.7525355E-3,-1.0923005E-3,3.836741E-3,6.980853E-3,-3.8004918E-3,-3.3927354E-4,-7.088327E-3,-4.1652145E-3],"categories":[],"categories_nodes":[],"categories_segments":[],"categories_sizes":[],"default_left":[0,0,0,0,0,0,0,0,0,0,0,0,0,0,0,0,0,0,0,0,0,0,0,0,0,0,0,0,0,0,0],"id":15,"left_children":[1,3,5,7,9,11,13,15,17,19,21,23,25,27,29,-1,-1,-1,-1,-1,-1,-1,-1,-1,-1,-1,-1,-1,-1,-1,-1],"loss_changes":[5.0950488E2,1.3289072E2,5.0799643E2,4.9517254E1,6.773358E1,1.7012965E2,1.6675769E2,2.6548275E1,2.9259531E1,2.4003601E1,4.9216766E1,5.200787E1,2.7218933E1,7.8007065E1,4.089801E1,0E0,0E0,0E0,0E0,0E0,0E0,0E0,0E0,0E0,0E0,0E0,0E0,0E0,0E0,0E0,0E0],"parents":[2147483647,0,0,1,1,2,2,3,3,4,4,5,5,6,6,7,7,8,8,9,9,10,10,11,11,12,12,13,13,14,14],"right_children":[2,4,6,8,10,12,14,16,18,20,22,24,26,28,30,-1,-1,-1,-1,-1,-1,-1,-1,-1,-1,-1,-1,-1,-1,-1,-1],"split_conditions":[1.184E3,-9.826787E-1,5.1E1,-2.211521E0,-2.341195E0,6.3E1,1.503E3,1E0,-2.5960739E0,1.5333333E0,6.671095E1,1.1E1,2.0714285E0,1E0,3.2E1,1.1386272E-3,6.664211E-3,-5.027414E-3,6.812396E-4,7.5837267E-3,1.25137465E-2,9.575832E-3,3.6014856E-3,2.7525355E-3,-1.0923005E-3,3.836741E-3,6.980853E-3,-3.8004918E-3,-3.3927354E-4,-7.088327E-3,-4.1652145E-3],"split_indices":[1,11,20,18,18,23,1,6,11,9,20,20,9,9,23,0,0,0,0,0,0,0,0,0,0,0,0,0,0,0,0],"split_type":[0,0,0,0,0,0,0,0,0,0,0,0,0,0,0,0,0,0,0,0,0,0,0,0,0,0,0,0,0,0,0],"sum_hessian":[1.0246849E4,2.0939497E3,8.1528984E3,8.445096E2,1.2494401E3,3.0924788E3,5.06042E3,3.5254797E2,4.9196164E2,4.133895E2,8.3605054E2,1.7228352E3,1.3696436E3,2.926201E3,2.134219E3,1.5649979E2,1.9604817E2,1.16975006E2,3.7498663E2,2.283984E2,1.849911E2,1.741595E2,6.61891E2,4.9136E2,1.2314752E3,9.84123E2,3.8552054E2,9.7692346E2,1.9492776E3,7.329095E2,1.4013094E3],"tree_param":{"num_deleted":"0","num_feature":"26","num_nodes":"31","size_leaf_vector":"1"}},{"base_weights":[3.3160325E-3,-1.4010659E-1,3.153122E-1,1.6797902E-1,-2.765394E-1,3.313068E-2,4.891253E-1,6.1605657E-3,4.8416227E-1,-5.161124E-1,-1.5023518E-1,4.044718E-1,-7.675615E-2,8.414632E-1,3.6811608E-1,-3.8310955E-3,6.901038E-4,5.695822E-3,2.113671E-3,-6.8009607E-3,-3.716863E-3,-3.0428674E-3,7.176546E-4,2.3751436E-3,8.838042E-3,-4.139102E-3,1.0039848E-3,5.994655E-3,1.0338565E-2,6.348989E-3,2.6298468E-3],"categories":[],"categories_nodes":[],"categories_segments":[],"categories_sizes":[],"default_left":[0,0,0,0,0,0,0,0,0,0,0,0,0,0,0,0,0,0,0,0,0,0,0,0,0,0,0,0,0,0,0],"id":16,"left_children":[1,3,5,7,9,11,13,15,17,19,21,23,25,27,29,-1,-1,-1,-1,-1,-1,-1,-1,-1,-1,-1,-1,-1,-1,-1,-1],"loss_changes":[4.525119E2,2.9124734E2,1.5618362E2,1.0882121E2,1.4522528E2,4.960967E1,8.371359E1,3.4472187E1,1.6657822E1,3.899716E1,1.07602905E2,2.2005917E1,5.6090584E1,2.2800446E1,4.1025543E1,0E0,0E0,0E0,0E0,0E0,0E0,0E0,0E0,0E0,0E0,0E0,0E0,0E0,0E0,0E0,0E0],"parents":[2147483647,0,0,1,1,2,2,3,3,4,4,5,5,6,6,7,7,8,8,9,9,10,10,11,11,12,12,13,13,14,14],"right_children":[2,4,6,8,10,12,14,16,18,20,22,24,26,28,30,-1,-1,-1,-1,-1,-1,-1,-1,-1,-1,-1,-1,-1,-1,-1,-1],"split_conditions":[1.6E0,4E1,1.1333333E0,6.6E1,6.4E1,-2.5927923E0,-2.2764416E0,7E0,7.1209276E-1,1.509E3,1.414E3,1.287E3,1.134E3,1.5333333E0,4.2E1,-3.8310955E-3,6.901038E-4,5.695822E-3,2.113671E-3,-6.8009607E-3,-3.716863E-3,-3.0428674E-3,7.176546E-4,2.3751436E-3,8.838042E-3,-4.139102E-3,1.0039848E-3,5.994655E-3,1.0338565E-2,6.348989E-3,2.6298468E-3],"split_indices":[17,20,9,23,23,18,18,23,18,0,0,0,0,9,20,0,0,0,0,0,0,0,0,0,0,0,0,0,0,0,0],"split_type":[0,0,0,0,0,0,0,0,0,0,0,0,0,0,0,0,0,0,0,0,0,0,0,0,0,0,0,0,0,0,0],"sum_hessian":[1.0110619E4,6.9269136E3,3.1837063E3,2.1259563E3,4.800957E3,1.2139985E3,1.9697076E3,1.4069282E3,7.19028E2,1.6562695E3,3.1446875E3,2.7660043E2,9.3739813E2,5.0202548E2,1.4676821E3,1.9487068E2,1.2120575E3,5.4674005E2,1.7228795E2,7.7388226E2,8.8238727E2,1.8562327E3,1.288455E3,2.062548E2,7.034563E1,3.2242825E2,6.1496985E2,2.2417175E2,2.7785373E2,4.134548E2,1.0542274E3],"tree_param":{"num_deleted":"0","num_feature":"26","num_nodes":"31","size_leaf_vector":"1"}},{"base_weights":[4.8365556E-3,4.3456528E-1,-1.13602094E-1,-4.3423963E-3,6.488033E-1,1.9242765E-1,-2.9968643E-1,5.1661295E-1,-1.171081E-1,1.2674987E0,5.7672936E-1,-8.216499E-3,4.6313944E-1,-1.09099194E-1,-4.636604E-1,2.085178E-3,6.9447374E-3,1.4673147E-4,-4.274445E-3,1.3689976E-2,6.7387014E-3,7.8083E-3,3.875435E-3,2.478799E-3,-1.2527353E-3,2.8058058E-3,6.300131E-3,-3.3035527E-3,1.0095077E-3,-6.5042293E-3,-3.3695435E-3],"categories":[],"categories_nodes":[],"categories_segments":[],"categories_sizes":[],"default_left":[0,0,0,0,0,0,0,0,0,0,0,0,0,0,0,0,0,0,0,0,0,0,0,0,0,0,0,0,0,0,0],"id":17,"left_children":[1,3,5,7,9,11,13,15,17,19,21,23,25,27,29,-1,-1,-1,-1,-1,-1,-1,-1,-1,-1,-1,-1,-1,-1,-1,-1],"loss_changes":[5.168299E2,2.0630756E2,4.533895E2,4.2395798E1,6.501361E1,1.6353787E2,1.5466833E2,6.8923035E0,2.42674E1,8.296005E0,5.0757843E1,5.1896782E1,3.886673E1,1.0650263E2,6.2748047E1,0E0,0E0,0E0,0E0,0E0,0E0,0E0,0E0,0E0,0E0,0E0,0E0,0E0,0E0,0E0,0E0],"parents":[2147483647,0,0,1,1,2,2,3,3,4,4,5,5,6,6,7,7,8,8,9,9,10,10,11,11,12,12,13,13,14,14],"right_children":[2,4,6,8,10,12,14,16,18,20,22,24,26,28,30,-1,-1,-1,-1,-1,-1,-1,-1,-1,-1,-1,-1,-1,-1,-1,-1],"split_conditions":[1.19E3,1.111E3,5.1E1,-3.3430312E0,3.7E1,6.5E1,1.438E3,1.1880146E0,1E0,2.78E1,1.016E3,1.2E1,1.734E3,1.351E3,1.41E3,2.085178E-3,6.9447374E-3,1.4673147E-4,-4.274445E-3,1.3689976E-2,6.7387014E-3,7.8083E-3,3.875435E-3,2.478799E-3,-1.2527353E-3,2.8058058E-3,6.300131E-3,-3.3035527E-3,1.0095077E-3,-6.5042293E-3,-3.3695435E-3],"split_indices":[1,0,20,18,20,23,1,19,5,25,1,20,0,0,0,0,0,0,0,0,0,0,0,0,0,0,0,0,0,0,0],"split_type":[0,0,0,0,0,0,0,0,0,0,0,0,0,0,0,0,0,0,0,0,0,0,0,0,0,0,0,0,0,0,0],"sum_hessian":[1.0152559E4,2.193015E3,7.9595435E3,7.196511E2,1.4733638E3,3.0097495E3,4.949794E3,1.2741902E2,5.9223206E2,1.519982E2,1.3213655E3,1.729133E3,1.2806163E3,2.2899019E3,2.659892E3,4.7430687E1,7.9988335E1,4.1637524E2,1.7585684E2,1.2868878E2,2.330942E1,6.341228E2,6.8724274E2,5.420729E2,1.1870602E3,6.128468E2,6.677696E2,1.1149241E3,1.1749779E3,1.073475E3,1.5864171E3],"tree_param":{"num_deleted":"0","num_feature":"26","num_nodes":"31","size_leaf_vector":"1"}},{"base_weights":[9.11853E-5,4.1884992E-1,-1.1395946E-1,3.1317882E-2,6.656539E-1,2.1047647E-1,-2.83602E-1,-1.5271232E-1,2.4386303E-1,5.3369755E-1,9.3288606E-1,5.5849534E-1,6.580899E-2,-1.2602088E-1,-4.9345067E-1,-1.8550666E-3,1.4404548E-2,5.356153E-3,6.704404E-4,7.558186E-3,2.719247E-3,1.012798E-2,4.7569945E-3,3.5502436E-3,7.548273E-3,2.584486E-3,-6.1935553E-4,-3.0558456E-3,1.1685315E-3,-7.295389E-3,-3.7553236E-3],"categories":[],"categories_nodes":[],"categories_segments":[],"categories_sizes":[],"default_left":[0,0,0,0,0,0,0,0,0,0,0,0,0,0,0,0,0,0,0,0,0,0,0,0,0,0,0,0,0,0,0],"id":18,"left_children":[1,3,5,7,9,11,13,15,17,19,21,23,25,27,29,-1,-1,-1,-1,-1,-1,-1,-1,-1,-1,-1,-1,-1,-1,-1,-1],"loss_changes":[4.8874478E2,2.094898E2,4.4272583E2,3.341474E1,4.6690796E1,1.3902744E2,1.7459677E2,2.4193924E1,2.0411684E1,5.2019043E1,1.5630676E1,3.212599E1,4.8057236E1,1.3165073E2,6.277832E1,0E0,0E0,0E0,0E0,0E0,0E0,0E0,0E0,0E0,0E0,0E0,0E0,0E0,0E0,0E0,0E0],"parents":[2147483647,0,0,1,1,2,2,3,3,4,4,5,5,6,6,7,7,8,8,9,9,10,10,11,11,12,12,13,13,14,14],"right_children":[2,4,6,8,10,12,14,16,18,20,22,24,26,28,30,-1,-1,-1,-1,-1,-1,-1,-1,-1,-1,-1,-1,-1,-1,-1,-1],"split_conditions":[1.19E3,1.144E3,4.4E1,1.0666667E0,1.476E3,1.519E3,1.506E3,7.2E0,9.03E2,1.056E3,2.7E1,1.741E3,1.4E1,1.41E3,1.407E3,-1.8550666E-3,1.4404548E-2,5.356153E-3,6.704404E-4,7.558186E-3,2.719247E-3,1.012798E-2,4.7569945E-3,3.5502436E-3,7.548273E-3,2.584486E-3,-6.1935553E-4,-3.0558456E-3,1.1685315E-3,-7.295389E-3,-3.7553236E-3],"split_indices":[1,0,20,9,0,1,1,14,1,1,25,0,20,0,0,0,0,0,0,0,0,0,0,0,0,0,0,0,0,0,0],"split_type":[0,0,0,0,0,0,0,0,0,0,0,0,0,0,0,0,0,0,0,0,0,0,0,0,0,0,0,0,0,0,0],"sum_hessian":[1.0231414E4,2.1895159E3,8.041898E3,8.523232E2,1.3371926E3,2.7611143E3,5.2807837E3,4.5695477E2,3.9536844E2,8.9717456E2,4.40018E2,8.0990607E2,1.9512084E3,3.0169062E3,2.2638774E3,4.486041E2,8.350675E0,1.4842961E2,2.4693883E2,4.8432495E2,4.1284964E2,3.7351562E2,6.650237E1,3.9910117E2,4.108049E2,7.7758374E2,1.1736246E3,1.7343751E3,1.2825312E3,7.5236163E2,1.5115156E3],"tree_param":{"num_deleted":"0","num_feature":"26","num_nodes":"31","size_leaf_vector":"1"}},{"base_weights":[-9.214324E-3,3.570126E-1,-1.3509504E-1,-3.338416E-3,5.907925E-1,-4.2027783E-1,7.278874E-2,3.4520173E-1,-1.8214083E-1,1.1617028E0,5.231581E-1,-2.848849E-1,-6.4640486E-1,-1.487102E-1,3.2332456E-1,5.568958E-4,5.9993444E-3,-3.6674528E-3,1.1725297E-4,1.3985124E-2,9.454423E-3,7.698832E-3,3.6217612E-3,-6.597996E-3,-1.8106056E-3,-1.02737425E-2,-5.8777235E-3,7.8125217E-4,-3.3902335E-3,2.093314E-3,5.6618904E-3],"categories":[],"categories_nodes":[],"categories_segments":[],"categories_sizes":[],"default_left":[0,0,0,0,0,0,0,0,0,0,0,0,0,0,0,0,0,0,0,0,0,0,0,0,0,0,0,0,0,0,0],"id":19,"left_children":[1,3,5,7,9,11,13,15,17,19,21,23,25,27,29,-1,-1,-1,-1,-1,-1,-1,-1,-1,-1,-1,-1,-1,-1,-1,-1],"loss_changes":[4.6536847E2,2.1753265E2,4.4539804E2,6.3444546E1,5.986621E1,9.6790405E1,2.4121567E2,2.542342E1,2.408474E1,7.1312866E0,5.5409515E1,7.706918E1,2.5875946E1,9.963165E1,5.63472E1,0E0,0E0,0E0,0E0,0E0,0E0,0E0,0E0,0E0,0E0,0E0,0E0,0E0,0E0,0E0,0E0],"parents":[2147483647,0,0,1,1,2,2,3,3,4,4,5,5,6,6,7,7,8,8,9,9,10,10,11,11,12,12,13,13,14,14],"right_children":[2,4,6,8,10,12,14,16,18,20,22,24,26,28,30,-1,-1,-1,-1,-1,-1,-1,-1,-1,-1,-1,-1,-1,-1,-1,-1],"split_conditions":[1.23E3,1.165E3,1.513E3,-2.341195E0,3.7E1,1.509E3,6.3E1,1E0,1E0,-2.0079494E0,1.044E3,1.195E3,1.203E3,2.6E1,1.741E3,5.568958E-4,5.9993444E-3,-3.6674528E-3,1.1725297E-4,1.3985124E-2,9.454423E-3,7.698832E-3,3.6217612E-3,-6.597996E-3,-1.8106056E-3,-1.02737425E-2,-5.8777235E-3,7.8125217E-4,-3.3902335E-3,2.093314E-3,5.6618904E-3],"split_indices":[1,0,0,18,20,1,23,9,2,18,1,0,0,20,0,0,0,0,0,0,0,0,0,0,0,0,0,0,0,0,0],"split_type":[0,0,0,0,0,0,0,0,0,0,0,0,0,0,0,0,0,0,0,0,0,0,0,0,0,0,0,0,0,0,0],"sum_hessian":[1.0092514E4,2.5811868E3,7.511327E3,1.0160387E3,1.5651482E3,3.1664502E3,4.344877E3,3.441857E2,6.71853E2,1.6406654E2,1.4010817E3,1.9819957E3,1.1844546E3,2.3062903E3,2.0385868E3,1.6166582E2,1.825199E2,3.4369025E2,3.2816275E2,7.570319E1,8.836334E1,5.5171954E2,8.4936206E2,4.2867493E2,1.5533208E3,1.5577454E2,1.0286799E3,1.0524536E3,1.2538365E3,1.3886561E3,6.4993066E2],"tree_param":{"num_deleted":"0","num_feature":"26","num_nodes":"31","size_leaf_vector":"1"}},{"base_weights":[-6.1361976E-3,3.74988E-1,-1.1147044E-1,8.984012E-2,5.6489325E-1,1.4278369E-1,-3.2479596E-1,4.3521323E-3,7.0153105E-1,1.2079021E0,5.0235164E-1,3.462252E-1,-7.225079E-2,-2.0518124E-1,-6.013197E-1,-3.1424465E-3,1.2542728E-3,9.533543E-3,3.6568444E-3,9.367486E-3,1.5323726E-2,8.193839E-3,4.0727127E-3,5.449209E-3,2.2587187E-3,1.268239E-3,-2.6389307E-3,-3.6190993E-3,-8.7787514E-4,-9.259362E-3,-5.5315583E-3],"categories":[],"categories_nodes":[],"categories_segments":[],"categories_sizes":[],"default_left":[0,0,0,0,0,0,0,0,0,0,0,0,0,0,0,0,0,0,0,0,0,0,0,0,0,0,0,0,0,0,0],"id":20,"left_children":[1,3,5,7,9,11,13,15,17,19,21,23,25,27,29,-1,-1,-1,-1,-1,-1,-1,-1,-1,-1,-1,-1,-1,-1,-1,-1],"loss_changes":[4.036914E2,1.1785776E2,4.273559E2,4.557575E1,5.194519E1,1.5729669E2,1.4158386E2,2.957741E1,8.689911E0,8.693314E0,3.561725E1,4.405713E1,6.674253E1,5.502038E1,1.9705444E1,0E0,0E0,0E0,0E0,0E0,0E0,0E0,0E0,0E0,0E0,0E0,0E0,0E0,0E0,0E0,0E0],"parents":[2147483647,0,0,1,1,2,2,3,3,4,4,5,5,6,6,7,7,8,8,9,9,10,10,11,11,12,12,13,13,14,14],"right_children":[2,4,6,8,10,12,14,16,18,20,22,24,26,28,30,-1,-1,-1,-1,-1,-1,-1,-1,-1,-1,-1,-1,-1,-1,-1,-1],"split_conditions":[1.19E3,-9.826787E-1,6.4E1,3.9333334E0,3.1E1,1.648E3,1.564E3,-2.5960739E0,7.8571427E-1,2.5E0,8.78E2,2.5E1,2.1E1,1.0666667E0,6.4285713E-1,-3.1424465E-3,1.2542728E-3,9.533543E-3,3.6568444E-3,9.367486E-3,1.5323726E-2,8.193839E-3,4.0727127E-3,5.449209E-3,2.2587187E-3,1.268239E-3,-2.6389307E-3,-3.6190993E-3,-8.7787514E-4,-9.259362E-3,-5.5315583E-3],"split_indices":[1,11,20,17,20,1,1,11,16,14,1,20,20,9,9,0,0,0,0,0,0,0,0,0,0,0,0,0,0,0,0],"split_type":[0,0,0,0,0,0,0,0,0,0,0,0,0,0,0,0,0,0,0,0,0,0,0,0,0,0,0,0,0,0,0],"sum_hessian":[1.0053685E4,2.176399E3,7.8772856E3,8.706171E2,1.3057819E3,3.594033E3,4.283253E3,7.647458E2,1.0587134E2,1.1412416E2,1.1916577E3,1.8464855E3,1.7475475E3,2.991133E3,1.29212E3,2.1015338E2,5.545924E2,5.9453484E1,4.6417854E1,6.428746E1,4.9836704E1,2.7317508E2,9.184826E2,6.9521E2,1.1512754E3,8.5731824E2,8.902292E2,1.2800696E3,1.7110634E3,1.645893E2,1.1275306E3],"tree_param":{"num_deleted":"0","num_feature":"26","num_nodes":"31","size_leaf_vector":"1"}},{"base_weights":[3.729389E-3,4.0087306E-1,-1.022089E-1,2.1264586E-1,6.603776E-1,2.1752886E-1,-2.3390207E-1,-6.9837175E-2,3.5078177E-1,9.001079E-1,4.9414963E-1,3.2126386E-2,5.1608163E-1,-5.759527E-1,-1.3474374E-1,3.906342E-3,-2.1429982E-3,5.8482746E-3,1.9291838E-3,1.0523806E-2,7.2668707E-3,-2.7975931E-3,5.7259738E-3,2.222283E-3,-7.431526E-4,3.2823854E-3,6.316139E-3,-7.4495682E-3,-4.325348E-3,-2.5931238E-3,7.403083E-4],"categories":[],"categories_nodes":[],"categories_segments":[],"categories_sizes":[],"default_left":[0,0,0,0,0,0,0,0,0,0,0,0,0,0,0,0,0,0,0,0,0,0,0,0,0,0,0,0,0,0,0],"id":21,"left_children":[1,3,5,7,9,11,13,15,17,19,21,23,25,27,29,-1,-1,-1,-1,-1,-1,-1,-1,-1,-1,-1,-1,-1,-1,-1,-1],"loss_changes":[4.250602E2,1.0377762E2,3.3587936E2,4.8198086E1,3.5177734E1,1.2879816E2,1.9153296E2,2.7109499E1,3.0526733E1,8.869019E0,3.234343E1,2.9087877E1,1.9139343E1,3.044455E1,1.139554E2,0E0,0E0,0E0,0E0,0E0,0E0,0E0,0E0,0E0,0E0,0E0,0E0,0E0,0E0,0E0,0E0],"parents":[2147483647,0,0,1,1,2,2,3,3,4,4,5,5,6,6,7,7,8,8,9,9,10,10,11,11,12,12,13,13,14,14],"right_children":[2,4,6,8,10,12,14,16,18,20,22,24,26,28,30,-1,-1,-1,-1,-1,-1,-1,-1,-1,-1,-1,-1,-1,-1,-1,-1],"split_conditions":[-1.2502848E0,1.4E0,3.9E1,1.111E3,-2.2764416E0,6.6E1,4.8E1,-3.3430312E0,1E0,1.3333334E0,-1.3498979E0,1.1E1,1.72E3,1.526E3,1.451E3,3.906342E-3,-2.1429982E-3,5.8482746E-3,1.9291838E-3,1.0523806E-2,7.2668707E-3,-2.7975931E-3,5.7259738E-3,2.222283E-3,-7.431526E-4,3.2823854E-3,6.316139E-3,-7.4495682E-3,-4.325348E-3,-2.5931238E-3,7.403083E-4],"split_indices":[18,9,20,0,18,23,23,18,5,10,11,20,0,0,0,0,0,0,0,0,0,0,0,0,0,0,0,0,0,0,0],"split_type":[0,0,0,0,0,0,0,0,0,0,0,0,0,0,0,0,0,0,0,0,0,0,0,0,0,0,0,0,0,0,0],"sum_hessian":[1.0101015E4,2.1264712E3,7.9745435E3,1.2335536E3,8.9291754E2,2.3261746E3,5.648369E3,4.05275E2,8.2827856E2,3.638158E2,5.2910175E2,1.4357041E3,8.904705E2,1.268347E3,4.380022E3,9.637567E1,3.0889932E2,3.3254623E2,4.9573236E2,1.9102086E2,1.7279494E2,4.8460377E1,4.8064136E2,5.149426E2,9.207615E2,3.4057437E2,5.498961E2,5.803115E2,6.8803546E2,2.7430789E3,1.6369432E3],"tree_param":{"num_deleted":"0","num_feature":"26","num_nodes":"31","size_leaf_vector":"1"}},{"base_weights":[-3.4680695E-3,-1.3774411E-1,2.8772712E-1,1.6379714E-1,-2.7156296E-1,1.5881713E-2,4.2805028E-1,-8.965133E-2,3.0818447E-1,-5.719331E-1,-1.6359627E-1,-5.608294E-2,6.34878E-1,6.9931877E-1,3.0673188E-1,3.1688623E-4,-3.2939594E-3,1.4594264E-3,4.124535E-3,-6.910846E-3,-3.7099498E-3,-3.3352044E-3,-7.077848E-5,-2.8917529E-3,1.3850121E-3,3.6844616E-3,1.1126169E-2,1.0862292E-2,6.1655515E-3,5.480194E-3,1.9854405E-3],"categories":[],"categories_nodes":[],"categories_segments":[],"categories_sizes":[],"default_left":[0,0,0,0,0,0,0,0,0,0,0,0,0,0,0,0,0,0,0,0,0,0,0,0,0,0,0,0,0,0,0],"id":22,"left_children":[1,3,5,7,9,11,13,15,17,19,21,23,25,27,29,-1,-1,-1,-1,-1,-1,-1,-1,-1,-1,-1,-1,-1,-1,-1,-1],"loss_changes":[3.9466003E2,2.7879602E2,1.21505615E2,7.775401E1,1.5508511E2,4.8391197E1,6.892627E1,2.245772E1,2.2834015E1,3.002539E1,9.364966E1,4.4188923E1,1.3991089E1,2.0095001E1,3.7832993E1,0E0,0E0,0E0,0E0,0E0,0E0,0E0,0E0,0E0,0E0,0E0,0E0,0E0,0E0,0E0,0E0],"parents":[2147483647,0,0,1,1,2,2,3,3,4,4,5,5,6,6,7,7,8,8,9,9,10,10,11,11,12,12,13,13,14,14],"right_children":[2,4,6,8,10,12,14,16,18,20,22,24,26,28,30,-1,-1,-1,-1,-1,-1,-1,-1,-1,-1,-1,-1,-1,-1,-1,-1],"split_conditions":[1.6E0,4E1,1.0666667E0,3.1E1,5.1E1,4E0,-2.0460467E0,2.1E1,1E0,7.709524E0,1E0,1.195E3,2E0,-4.077767E0,4.7E1,3.1688623E-4,-3.2939594E-3,1.4594264E-3,4.124535E-3,-6.910846E-3,-3.7099498E-3,-3.3352044E-3,-7.077848E-5,-2.8917529E-3,1.3850121E-3,3.6844616E-3,1.1126169E-2,1.0862292E-2,6.1655515E-3,5.480194E-3,1.9854405E-3],"split_indices":[17,20,9,23,23,14,18,20,2,21,2,0,4,18,20,0,0,0,0,0,0,0,0,0,0,0,0,0,0,0,0],"split_type":[0,0,0,0,0,0,0,0,0,0,0,0,0,0,0,0,0,0,0,0,0,0,0,0,0,0,0,0,0,0,0],"sum_hessian":[1.0091454E4,6.9070156E3,3.1844387E3,2.1229758E3,4.78404E3,1.0845239E3,2.0999148E3,7.706335E2,1.3523424E3,1.2637926E3,3.5202473E3,9.723838E2,1.12140175E2,6.4744977E2,1.4524651E3,5.122437E2,2.583898E2,5.3002576E2,8.2231665E2,7.918217E2,4.7197083E2,1.6872999E3,1.8329474E3,4.4219376E2,5.3019E2,7.312826E1,3.9011917E1,1.1195384E2,5.354959E2,4.483842E2,1.00408093E3],"tree_param":{"num_deleted":"0","num_feature":"26","num_nodes":"31","size_leaf_vector":"1"}},{"base_weights":[2.960606E-3,-1.4162971E-1,2.7055272E-1,-3.3866593E-1,3.1083986E-2,1.2593879E-1,5.202848E-1,-7.0946276E-1,-2.5080088E-1,-1.2924309E-1,2.7500093E-1,-1.5032183E-1,2.3075801E-1,3.6280435E-1,7.6460695E-1,-1.11479545E-2,-6.5913596E-3,5.211932E-5,-3.2911906E-3,-2.4100647E-3,1.1232255E-3,1.6934357E-3,5.2677975E-3,7.313548E-4,-5.218723E-3,4.3397537E-3,3.2377537E-4,2.2803997E-3,5.92837E-3,1.1265619E-2,6.715319E-3],"categories":[],"categories_nodes":[],"categories_segments":[],"categories_sizes":[],"default_left":[0,0,0,0,0,0,0,0,0,0,0,0,0,0,0,0,0,0,0,0,0,0,0,0,0,0,0,0,0,0,0],"id":23,"left_children":[1,3,5,7,9,11,13,15,17,19,21,23,25,27,29,-1,-1,-1,-1,-1,-1,-1,-1,-1,-1,-1,-1,-1,-1,-1,-1],"loss_changes":[3.9511102E2,2.2562354E2,1.2930649E2,1.0071808E2,1.3823003E2,6.576492E1,5.025534E1,1.1356018E1,5.023108E1,5.7612633E1,3.7203445E1,5.1925774E1,6.6340706E1,2.4680794E1,1.6554474E1,0E0,0E0,0E0,0E0,0E0,0E0,0E0,0E0,0E0,0E0,0E0,0E0,0E0,0E0,0E0,0E0],"parents":[2147483647,0,0,1,1,2,2,3,3,4,4,5,5,6,6,7,7,8,8,9,9,10,10,11,11,12,12,13,13,14,14],"right_children":[2,4,6,8,10,12,14,16,18,20,22,24,26,28,30,-1,-1,-1,-1,-1,-1,-1,-1,-1,-1,-1,-1,-1,-1,-1,-1],"split_conditions":[1.5E0,1.519E3,1.5333333E0,5.1E1,6.3E1,1.111E3,2.0666666E0,1.184E3,1E0,1.84E3,1.734E3,1E0,1.426E3,1.725E3,5.3333336E-1,-1.11479545E-2,-6.5913596E-3,5.211932E-5,-3.2911906E-3,-2.4100647E-3,1.1232255E-3,1.6934357E-3,5.2677975E-3,7.313548E-4,-5.218723E-3,4.3397537E-3,3.2377537E-4,2.2803997E-3,5.92837E-3,1.1265619E-2,6.715319E-3],"split_indices":[17,0,9,23,23,0,17,0,5,0,0,5,15,0,16,0,0,0,0,0,0,0,0,0,0,0,0,0,0,0,0],"split_type":[0,0,0,0,0,0,0,0,0,0,0,0,0,0,0,0,0,0,0,0,0,0,0,0,0,0,0,0,0,0,0],"sum_hessian":[1.0209911E4,6.628661E3,3.5812502E3,3.0958618E3,3.5327996E3,2.2688926E3,1.3123577E3,5.917137E2,2.5041482E3,2.131941E3,1.4008586E3,6.239586E2,1.6449338E3,7.9950995E2,5.1284766E2,6.3017574E1,5.286961E2,5.868241E2,1.9173241E3,1.4575769E3,6.74364E2,9.87946E2,4.129126E2,3.9013028E2,2.3382837E2,8.119744E2,8.329595E2,5.0540842E2,2.9410156E2,1.0263023E2,4.102174E2],"tree_param":{"num_deleted":"0","num_feature":"26","num_nodes":"31","size_leaf_vector":"1"}},{"base_weights":[-6.0682367E-3,3.8122138E-1,-1.0639311E-1,4.268806E-2,5.209314E-1,1.9341263E-1,-2.2921489E-1,2.984366E-1,-2.1581964E-1,4.4477844E-1,9.57734E-1,3.5313776E-1,-3.213493E-4,-1.359681E-1,-4.6134424E-1,-4.008546E-4,5.3080353E-3,1.0793696E-3,-3.61049E-3,7.117287E-3,3.4817301E-3,1.2249766E-2,7.167789E-3,4.736192E-3,1.9809352E-3,3.3515568E-3,-4.6346697E-4,-2.6308E-3,2.1862885E-4,-6.926773E-3,-2.970471E-3],"categories":[],"categories_nodes":[],"categories_segments":[],"categories_sizes":[],"default_left":[0,0,0,0,0,0,0,0,0,0,0,0,0,0,0,0,0,0,0,0,0,0,0,0,0,0,0,0,0,0,0],"id":24,"left_children":[1,3,5,7,9,11,13,15,17,19,21,23,25,27,29,-1,-1,-1,-1,-1,-1,-1,-1,-1,-1,-1,-1,-1,-1,-1,-1],"loss_changes":[3.934406E2,9.85141E1,2.9619098E2,4.0374084E1,4.8626984E1,7.2341835E1,1.2343881E2,2.4163218E1,1.4323296E1,3.2184402E1,1.3163635E1,2.384224E1,1.634283E1,8.169831E1,6.1925995E1,0E0,0E0,0E0,0E0,0E0,0E0,0E0,0E0,0E0,0E0,0E0,0E0,0E0,0E0,0E0,0E0],"parents":[2147483647,0,0,1,1,2,2,3,3,4,4,5,5,6,6,7,7,8,8,9,9,10,10,11,11,12,12,13,13,14,14],"right_children":[2,4,6,8,10,12,14,16,18,20,22,24,26,28,30,-1,-1,-1,-1,-1,-1,-1,-1,-1,-1,-1,-1,-1,-1,-1,-1],"split_conditions":[-1.2682987E0,1.144E3,3.9E1,-2.341195E0,3.75E0,6.1568964E-1,7.709524E0,1E0,1.0518E3,1.1958E3,-3.6035125E0,7.7978215E0,7.6061664E0,1.389E3,1.496E3,-4.008546E-4,5.3080353E-3,1.0793696E-3,-3.61049E-3,7.117287E-3,3.4817301E-3,1.2249766E-2,7.167789E-3,4.736192E-3,1.9809352E-3,3.3515568E-3,-4.6346697E-4,-2.6308E-3,2.1862885E-4,-6.926773E-3,-2.970471E-3],"split_indices":[18,0,20,18,14,18,24,6,15,15,18,24,24,0,0,0,0,0,0,0,0,0,0,0,0,0,0,0,0,0,0],"split_type":[0,0,0,0,0,0,0,0,0,0,0,0,0,0,0,0,0,0,0,0,0,0,0,0,0,0,0,0,0,0,0],"sum_hessian":[1.0123881E4,2.0823748E3,8.0415063E3,6.08709E2,1.4736658E3,2.3368132E3,5.7046934E3,3.0590982E2,3.027992E2,1.2566052E3,2.1706062E2,1.2803765E3,1.0564368E3,4.0709648E3,1.6337284E3,1.2485021E2,1.810596E2,9.384636E1,2.0895282E2,3.3221805E2,9.2438715E2,1.00980034E2,1.1608059E2,7.193392E2,5.6103735E2,1.26693146E2,9.297436E2,2.254554E3,1.8164108E3,6.7711847E2,9.566099E2],"tree_param":{"num_deleted":"0","num_feature":"26","num_nodes":"31","size_leaf_vector":"1"}},{"base_weights":[1.3684904E-3,3.5885713E-1,-1.06912784E-1,-2.3035688E-2,5.5624735E-1,-3.8494083E-1,9.394733E-2,3.2109687E-1,-2.0966609E-1,4.2527443E-1,8.540888E-1,-2.7362573E-1,-6.566884E-1,-1.0874709E-1,3.2942826E-1,4.028649E-3,-2.826727E-3,-3.253387E-3,1.2001962E-3,6.4927065E-3,1.9423533E-3,8.867537E-3,8.0744934E-4,-7.824181E-3,-2.2016584E-3,-1.0933127E-2,-5.932161E-3,1.1261762E-3,-2.6762052E-3,2.1483968E-3,5.6882105E-3],"categories":[],"categories_nodes":[],"categories_segments":[],"categories_sizes":[],"default_left":[0,0,0,0,0,0,0,0,0,0,0,0,0,0,0,0,0,0,0,0,0,0,0,0,0,0,0,0,0,0,0],"id":25,"left_children":[1,3,5,7,9,11,13,15,17,19,21,23,25,27,29,-1,-1,-1,-1,-1,-1,-1,-1,-1,-1,-1,-1,-1,-1,-1,-1],"loss_changes":[3.9118073E2,1.7710962E2,4.3318338E2,5.154362E1,6.0055634E1,9.823471E1,2.1500827E2,1.4046858E1,1.9879904E1,5.5650314E1,1.1853424E1,6.265178E1,2.553247E1,8.5180725E1,5.7036575E1,0E0,0E0,0E0,0E0,0E0,0E0,0E0,0E0,0E0,0E0,0E0,0E0,0E0,0E0,0E0,0E0],"parents":[2147483647,0,0,1,1,2,2,3,3,4,4,5,5,6,6,7,7,8,8,9,9,10,10,11,11,12,12,13,13,14,14],"right_children":[2,4,6,8,10,12,14,16,18,20,22,24,26,28,30,-1,-1,-1,-1,-1,-1,-1,-1,-1,-1,-1,-1,-1,-1,-1,-1],"split_conditions":[1.207E3,1.111E3,1.513E3,-2.341195E0,1.458E3,1.549E3,6.5E1,6.7E1,1.015E3,1.056E3,6.428948E-1,1.042E3,1.184E3,2.3E1,1.737E3,4.028649E-3,-2.826727E-3,-3.253387E-3,1.2001962E-3,6.4927065E-3,1.9423533E-3,8.867537E-3,8.0744934E-4,-7.824181E-3,-2.2016584E-3,-1.0933127E-2,-5.932161E-3,1.1261762E-3,-2.6762052E-3,2.1483968E-3,5.6882105E-3],"split_indices":[1,0,0,18,0,1,23,23,0,1,18,0,0,20,0,0,0,0,0,0,0,0,0,0,0,0,0,0,0,0,0],"split_type":[0,0,0,0,0,0,0,0,0,0,0,0,0,0,0,0,0,0,0,0,0,0,0,0,0,0,0,0,0,0,0],"sum_hessian":[1.0103604E4,2.3483281E3,7.7552754E3,8.0049194E2,1.5478362E3,3.2524119E3,4.502864E3,2.8122095E2,5.19271E2,1.0767662E3,4.7106982E2,2.3087095E3,9.437023E2,2.4201846E3,2.082679E3,2.4797116E2,3.3249786E1,3.8441083E2,1.3486015E2,5.4579694E2,5.3096936E2,4.5183823E2,1.9231617E1,2.1821951E2,2.09049E3,1.1771541E2,8.259869E2,1.01133813E3,1.4088466E3,1.4097709E3,6.729082E2],"tree_param":{"num_deleted":"0","num_feature":"26","num_nodes":"31","size_leaf_vector":"1"}},{"base_weights":[9.7286387E-4,-1.4136527E-1,2.639812E-1,1.7976385E-1,-2.5684234E-1,3.9267976E-2,4.2611685E-1,2.6121423E-1,-1.3767906E-1,-1.0267802E-1,-4.2033395E-1,-9.039564E-2,2.6584473E-1,6.660089E-1,2.6188827E-1,7.928766E-4,3.81623E-3,4.201453E-3,-2.2983204E-3,-2.1567286E-3,2.1548155E-3,-7.1272957E-3,-3.0960976E-3,1.7230532E-3,-3.3916223E-3,6.3205296E-3,1.1831647E-3,5.292323E-3,1.0353528E-2,5.055558E-3,1.047553E-3],"categories":[],"categories_nodes":[],"categories_segments":[],"categories_sizes":[],"default_left":[0,0,0,0,0,0,0,0,0,0,0,0,0,0,0,0,0,0,0,0,0,0,0,0,0,0,0,0,0,0,0],"id":26,"left_children":[1,3,5,7,9,11,13,15,17,19,21,23,25,27,29,-1,-1,-1,-1,-1,-1,-1,-1,-1,-1,-1,-1,-1,-1,-1,-1],"loss_changes":[3.785863E2,2.4337471E2,1.2936594E2,4.4923866E1,1.2161011E2,4.378237E1,8.108978E1,3.0241814E1,1.8352976E1,8.940125E1,7.5606476E1,6.2016144E1,2.9228008E1,4.1765564E1,4.6891975E1,0E0,0E0,0E0,0E0,0E0,0E0,0E0,0E0,0E0,0E0,0E0,0E0,0E0,0E0,0E0,0E0],"parents":[2147483647,0,0,1,1,2,2,3,3,4,4,5,5,6,6,7,7,8,8,9,9,10,10,11,11,12,12,13,13,14,14],"right_children":[2,4,6,8,10,12,14,16,18,20,22,24,26,28,30,-1,-1,-1,-1,-1,-1,-1,-1,-1,-1,-1,-1,-1,-1,-1,-1],"split_conditions":[1.5E0,3.2E1,1.2E0,1.868E3,1.503E3,1.364E3,1.151E3,1E0,3E0,1.49E3,1.407E3,1.077E3,1.171E3,1.496E3,4.2E1,7.928766E-4,3.81623E-3,4.201453E-3,-2.2983204E-3,-2.1567286E-3,2.1548155E-3,-7.1272957E-3,-3.0960976E-3,1.7230532E-3,-3.3916223E-3,6.3205296E-3,1.1831647E-3,5.292323E-3,1.0353528E-2,5.055558E-3,1.047553E-3],"split_indices":[17,20,9,1,1,0,1,2,20,0,0,1,1,0,20,0,0,0,0,0,0,0,0,0,0,0,0,0,0,0,0],"split_type":[0,0,0,0,0,0,0,0,0,0,0,0,0,0,0,0,0,0,0,0,0,0,0,0,0,0,0,0,0,0,0],"sum_hessian":[1.0110866E4,6.560718E3,3.550149E3,1.7350835E3,4.8256343E3,1.488455E3,2.0616938E3,1.3809362E3,3.5414725E2,2.484502E3,2.341132E3,9.4707263E2,5.413824E2,8.366E2,1.225094E3,5.506354E2,8.3030084E2,4.9705944E1,3.044413E2,1.8336135E3,6.508884E2,6.415411E2,1.6995911E3,4.6078485E2,4.8628778E2,1.5452414E2,3.8685825E2,6.122884E2,2.2431154E2,4.7942615E2,7.4566785E2],"tree_param":{"num_deleted":"0","num_feature":"26","num_nodes":"31","size_leaf_vector":"1"}},{"base_weights":[1.0240647E-2,3.8274485E-1,-1.0251455E-1,4.717356E-2,5.838469E-1,1.9160934E-1,-2.7630013E-1,6.178399E-1,-7.0037514E-2,4.59236E-1,8.7407154E-1,4.371895E-1,1.3905463E-2,-1.3174796E-1,-4.5599738E-1,3.084542E-3,7.918889E-3,-2.417034E-3,1.4224809E-3,6.9070463E-3,2.3194987E-3,1.1404229E-2,7.3152687E-3,3.6533508E-3,8.247644E-3,1.9961882E-3,-1.0816132E-3,-3.0921644E-3,1.3168044E-3,-6.692184E-3,-3.4176242E-3],"categories":[],"categories_nodes":[],"categories_segments":[],"categories_sizes":[],"default_left":[0,0,0,0,0,0,0,0,0,0,0,0,0,0,0,0,0,0,0,0,0,0,0,0,0,0,0,0,0,0,0],"id":27,"left_children":[1,3,5,7,9,11,13,15,17,19,21,23,25,27,29,-1,-1,-1,-1,-1,-1,-1,-1,-1,-1,-1,-1,-1,-1,-1,-1],"loss_changes":[4.281075E2,1.5979868E2,3.999888E2,5.947743E1,5.3151886E1,1.2683987E2,1.2770642E2,7.9141655E0,2.6930513E1,5.4453445E1,1.601181E1,3.368065E1,3.827361E1,1.2754388E2,5.317169E1,0E0,0E0,0E0,0E0,0E0,0E0,0E0,0E0,0E0,0E0,0E0,0E0,0E0,0E0,0E0,0E0],"parents":[2147483647,0,0,1,1,2,2,3,3,4,4,5,5,6,6,7,7,8,8,9,9,10,10,11,11,12,12,13,13,14,14],"right_children":[2,4,6,8,10,12,14,16,18,20,22,24,26,28,30,-1,-1,-1,-1,-1,-1,-1,-1,-1,-1,-1,-1,-1,-1,-1,-1],"split_conditions":[1.207E3,1.144E3,4.8E1,-3.3430312E0,1.496E3,1.593E3,1.503E3,1.1880146E0,9.63E2,1.056E3,3.2E1,1.892E3,1.4E1,1.422E3,1.41E3,3.084542E-3,7.918889E-3,-2.417034E-3,1.4224809E-3,6.9070463E-3,2.3194987E-3,1.1404229E-2,7.3152687E-3,3.6533508E-3,8.247644E-3,1.9961882E-3,-1.0816132E-3,-3.0921644E-3,1.3168044E-3,-6.692184E-3,-3.4176242E-3],"split_indices":[1,0,20,18,0,1,1,19,0,1,20,0,20,0,0,0,0,0,0,0,0,0,0,0,0,0,0,0,0,0,0],"split_type":[0,0,0,0,0,0,0,0,0,0,0,0,0,0,0,0,0,0,0,0,0,0,0,0,0,0,0,0,0,0,0],"sum_hessian":[1.0190669E4,2.3673542E3,7.8233145E3,8.8755676E2,1.4797974E3,2.905608E3,4.9177065E3,1.5050772E2,7.370491E2,1.037093E3,4.4270428E2,1.2192246E3,1.6863832E3,2.7263264E3,2.1913801E3,5.5184753E1,9.532297E1,4.0743555E2,3.2961353E2,5.1280865E2,5.242844E2,1.5189005E2,2.9081424E2,1.0301776E3,1.8904701E2,6.685741E2,1.01780914E3,1.6288298E3,1.0974965E3,7.6278107E2,1.4285991E3],"tree_param":{"num_deleted":"0","num_feature":"26","num_nodes":"31","size_leaf_vector":"1"}},{"base_weights":[-6.1959476E-4,3.3623686E-1,-1.1727191E-1,-2.4790835E-2,5.327993E-1,1.1675474E-1,-3.3065894E-1,3.1100178E-1,-1.9889046E-1,7.70828E-1,3.7992877E-1,-6.4419426E-2,3.291773E-1,-1.8528546E-1,-5.2954286E-1,3.9249156E-3,-2.8866616E-3,-2.4431858E-3,5.2906177E-3,6.774607E-3,1.1406382E-2,2.1347809E-3,6.8596858E-3,1.8034256E-3,-1.8523054E-3,1.5705164E-3,4.7614146E-3,-5.913563E-3,-8.1303937E-4,-7.164459E-3,-3.856785E-3],"categories":[],"categories_nodes":[],"categories_segments":[],"categories_sizes":[],"default_left":[0,0,0,0,0,0,0,0,0,0,0,0,0,0,0,0,0,0,0,0,0,0,0,0,0,0,0,0,0,0,0],"id":28,"left_children":[1,3,5,7,9,11,13,15,17,19,21,23,25,27,29,-1,-1,-1,-1,-1,-1,-1,-1,-1,-1,-1,-1,-1,-1,-1,-1],"loss_changes":[3.9657788E2,1.8423419E2,3.743927E2,5.361755E1,6.0870056E1,1.3764536E2,1.1327734E2,1.5417524E1,2.010007E1,2.1890656E1,5.2093018E1,5.712681E1,4.1568283E1,9.567209E1,4.4234344E1,0E0,0E0,0E0,0E0,0E0,0E0,0E0,0E0,0E0,0E0,0E0,0E0,0E0,0E0,0E0,0E0],"parents":[2147483647,0,0,1,1,2,2,3,3,4,4,5,5,6,6,7,7,8,8,9,9,10,10,11,11,12,12,13,13,14,14],"right_children":[2,4,6,8,10,12,14,16,18,20,22,24,26,28,30,-1,-1,-1,-1,-1,-1,-1,-1,-1,-1,-1,-1,-1,-1,-1,-1],"split_conditions":[1.23E3,1.129E3,6.4E1,-2.341195E0,1.016E3,6.3E1,1.503E3,6.7E1,2.5E0,3.142857E0,1.451E3,1.4E1,1.702E3,1.221E3,1.407E3,3.9249156E-3,-2.8866616E-3,-2.4431858E-3,5.2906177E-3,6.774607E-3,1.1406382E-2,2.1347809E-3,6.8596858E-3,1.8034256E-3,-1.8523054E-3,1.5705164E-3,4.7614146E-3,-5.913563E-3,-8.1303937E-4,-7.164459E-3,-3.856785E-3],"split_indices":[1,0,20,18,1,23,1,23,6,17,0,20,0,0,0,0,0,0,0,0,0,0,0,0,0,0,0,0,0,0,0],"split_type":[0,0,0,0,0,0,0,0,0,0,0,0,0,0,0,0,0,0,0,0,0,0,0,0,0,0,0,0,0,0,0],"sum_hessian":[1.0090299E4,2.59496E3,7.495339E3,9.1508685E2,1.679873E3,3.575002E3,3.9203372E3,3.121824E2,6.029045E2,6.5537384E2,1.0244991E3,1.92979E3,1.6452119E3,2.265968E3,1.6543691E3,2.7513885E2,3.704355E1,5.681154E2,3.4789055E1,5.2552466E2,1.2984918E2,6.646844E2,3.5981482E2,6.375757E2,1.2922144E3,7.58693E2,8.86519E2,4.609947E2,1.8049733E3,7.1782227E2,9.365469E2],"tree_param":{"num_deleted":"0","num_feature":"26","num_nodes":"31","size_leaf_vector":"1"}},{"base_weights":[-5.5403668E-3,3.2939762E-1,-1.2836307E-1,-5.1548976E-2,5.0086576E-1,-3.8501483E-1,6.1385747E-2,2.0068982E-1,-2.1392937E-1,3.9251685E-1,8.2867855E-1,-2.5049135E-1,-6.0168517E-1,-1.4353158E-1,2.8099903E-1,3.9175447E-4,5.8040544E-3,-8.9697645E-4,-4.918361E-3,6.3394234E-3,2.0378088E-3,7.3040924E-3,1.10582E-2,-6.4403703E-3,-1.4300897E-3,-9.184578E-3,-5.523632E-3,-2.6332E-3,1.1937259E-3,8.251732E-4,4.080979E-3],"categories":[],"categories_nodes":[],"categories_segments":[],"categories_sizes":[],"default_left":[0,0,0,0,0,0,0,0,0,0,0,0,0,0,0,0,0,0,0,0,0,0,0,0,0,0,0,0,0,0,0],"id":29,"left_children":[1,3,5,7,9,11,13,15,17,19,21,23,25,27,29,-1,-1,-1,-1,-1,-1,-1,-1,-1,-1,-1,-1,-1,-1,-1,-1],"loss_changes":[4.1683887E2,1.7761377E2,3.6107788E2,3.4644524E1,6.626901E1,9.170792E1,1.9190445E2,2.0299953E1,1.7716318E1,6.416739E1,1.1852539E1,8.222496E1,1.8342438E1,6.950966E1,5.1889297E1,0E0,0E0,0E0,0E0,0E0,0E0,0E0,0E0,0E0,0E0,0E0,0E0,0E0,0E0,0E0,0E0],"parents":[2147483647,0,0,1,1,2,2,3,3,4,4,5,5,6,6,7,7,8,8,9,9,10,10,11,11,12,12,13,13,14,14],"right_children":[2,4,6,8,10,12,14,16,18,20,22,24,26,28,30,-1,-1,-1,-1,-1,-1,-1,-1,-1,-1,-1,-1,-1,-1,-1,-1],"split_conditions":[1.245E3,1.111E3,1.519E3,9.16E2,1.5E3,1.506E3,6.1E1,1.1818181E0,6.7E1,1.056E3,1.728E3,1.212E3,1.2E3,1.85E3,1E0,3.9175447E-4,5.8040544E-3,-8.9697645E-4,-4.918361E-3,6.3394234E-3,2.0378088E-3,7.3040924E-3,1.10582E-2,-6.4403703E-3,-1.4300897E-3,-9.184578E-3,-5.523632E-3,-2.6332E-3,1.1937259E-3,8.251732E-4,4.080979E-3],"split_indices":[1,0,0,1,0,1,23,9,23,1,0,0,0,0,2,0,0,0,0,0,0,0,0,0,0,0,0,0,0,0,0],"split_type":[0,0,0,0,0,0,0,0,0,0,0,0,0,0,0,0,0,0,0,0,0,0,0,0,0,0,0,0,0,0,0],"sum_hessian":[1.0130671E4,2.7177297E3,7.412941E3,8.437936E2,1.8739362E3,3.1505369E3,4.262404E3,3.3036874E2,5.1342487E2,1.4100746E3,4.6386154E2,1.9450658E3,1.2054712E3,2.205157E3,2.0572468E3,2.3255376E2,9.7814995E1,3.557278E2,1.5769704E2,6.176438E2,7.924308E2,3.4512286E2,1.1873868E2,4.161917E2,1.528874E3,1.6003258E2,1.0454386E3,1.5149092E3,6.902478E2,8.0374384E2,1.253503E3],"tree_param":{"num_deleted":"0","num_feature":"26","num_nodes":"31","size_leaf_vector":"1"}},{"base_weights":[3.949584E-3,3.7598303E-1,-1.14705995E-1,6.234462E-1,1.8703116E-1,1.4443424E-1,-3.0816954E-1,4.453579E-1,8.9463705E-1,4.6161264E-1,3.5400167E-2,-5.947929E-2,3.9990208E-1,-1.652259E-1,-5.083568E-1,1.70188E-3,6.182331E-3,6.8652146E-3,1.0644183E-2,2.342329E-3,7.5144256E-3,1.5596877E-3,-2.9003494E-3,1.9316468E-3,-1.5285895E-3,3.413007E-3,7.835499E-3,-4.6112733E-3,-8.3010836E-4,-7.6388097E-3,-4.410007E-3],"categories":[],"categories_nodes":[],"categories_segments":[],"categories_sizes":[],"default_left":[0,0,0,0,0,0,0,0,0,0,0,0,0,0,0,0,0,0,0,0,0,0,0,0,0,0,0,0,0,0,0],"id":30,"left_children":[1,3,5,7,9,11,13,15,17,19,21,23,25,27,29,-1,-1,-1,-1,-1,-1,-1,-1,-1,-1,-1,-1,-1,-1,-1,-1],"loss_changes":[4.4520993E2,1.13918304E2,3.834037E2,5.0577057E1,5.7619778E1,1.7032803E2,1.2520746E2,3.029657E1,1.4017334E1,3.2274307E1,3.5080563E1,4.2941177E1,3.236093E1,6.2141205E1,3.1047882E1,0E0,0E0,0E0,0E0,0E0,0E0,0E0,0E0,0E0,0E0,0E0,0E0,0E0,0E0,0E0,0E0],"parents":[2147483647,0,0,1,1,2,2,3,3,4,4,5,5,6,6,7,7,8,8,9,9,10,10,11,11,12,12,13,13,14,14],"right_children":[2,4,6,8,10,12,14,16,18,20,22,24,26,28,30,-1,-1,-1,-1,-1,-1,-1,-1,-1,-1,-1,-1,-1,-1,-1,-1],"split_conditions":[1.216E3,1.3561741E0,5.7E1,2.2E0,-2.341195E0,6.3E1,1.506E3,1E0,1.5333333E0,1.1818181E0,2.4E0,1.1E1,8.702431E0,1E0,2.2E1,1.70188E-3,6.182331E-3,6.8652146E-3,1.0644183E-2,2.342329E-3,7.5144256E-3,1.5596877E-3,-2.9003494E-3,1.9316468E-3,-1.5285895E-3,3.413007E-3,7.835499E-3,-4.6112733E-3,-8.3010836E-4,-7.6388097E-3,-4.410007E-3],"split_indices":[1,10,20,17,18,23,1,2,9,9,10,20,21,4,23,0,0,0,0,0,0,0,0,0,0,0,0,0,0,0,0],"split_type":[0,0,0,0,0,0,0,0,0,0,0,0,0,0,0,0,0,0,0,0,0,0,0,0,0,0,0,0,0,0,0],"sum_hessian":[1.008346E4,2.4377996E3,7.64566E3,1.054483E3,1.3833167E3,3.2682131E3,4.3774473E3,6.380948E2,4.1638824E2,4.914068E2,8.919098E2,1.8179216E3,1.4502915E3,2.5549275E3,1.8225198E3,2.4697032E2,3.9112445E2,1.8934065E2,2.2704758E2,2.7638397E2,2.1502283E2,6.5117896E2,2.4073085E2,4.90305E2,1.3276166E3,1.2597561E3,1.9053537E2,5.545238E2,2.0004037E3,3.780388E2,1.4444811E3],"tree_param":{"num_deleted":"0","num_feature":"26","num_nodes":"31","size_leaf_vector":"1"}},{"base_weights":[-3.9928416E-3,-1.24938436E-1,2.6206806E-1,1.5893707E-1,-2.5381985E-1,3.322608E-2,4.2842478E-1,-1.2855738E-1,2.6713696E-1,-4.2152974E-1,-8.5117035E-2,-1.948923E-1,1.5325452E-1,7.404001E-1,3.011491E-1,-1.304835E-4,-4.3995813E-3,8.6244114E-4,3.8318534E-3,-6.389399E-3,-3.3207983E-3,-5.102824E-3,-1.2921718E-4,-4.668793E-3,3.9119984E-4,4.4865045E-3,-6.2044375E-5,5.8634793E-3,9.342614E-3,5.542987E-3,1.8707152E-3],"categories":[],"categories_nodes":[],"categories_segments":[],"categories_sizes":[],"default_left":[0,0,0,0,0,0,0,0,0,0,0,0,0,0,0,0,0,0,0,0,0,0,0,0,0,0,0,0,0,0,0],"id":31,"left_children":[1,3,5,7,9,11,13,15,17,19,21,23,25,27,29,-1,-1,-1,-1,-1,-1,-1,-1,-1,-1,-1,-1,-1,-1,-1,-1],"loss_changes":[3.2255316E2,2.521618E2,1.1924133E2,6.698701E1,1.34068E2,3.616493E1,7.17995E1,2.1188217E1,3.2801575E1,4.600717E1,7.256117E1,2.9005905E1,4.076114E1,1.512796E1,3.714881E1,0E0,0E0,0E0,0E0,0E0,0E0,0E0,0E0,0E0,0E0,0E0,0E0,0E0,0E0,0E0,0E0],"parents":[2147483647,0,0,1,1,2,2,3,3,4,4,5,5,6,6,7,7,8,8,9,9,10,10,11,11,12,12,13,13,14,14],"right_children":[2,4,6,8,10,12,14,16,18,20,22,24,26,28,30,-1,-1,-1,-1,-1,-1,-1,-1,-1,-1,-1,-1,-1,-1,-1,-1],"split_conditions":[1.6E0,4E1,1.2E0,2.1E1,1E0,1.116E3,-2.1396186E0,2.3E1,1E0,5.1E1,3.2E1,2.2666667E0,1.3454E3,1.7E0,3.9E1,-1.304835E-4,-4.3995813E-3,8.6244114E-4,3.8318534E-3,-6.389399E-3,-3.3207983E-3,-5.102824E-3,-1.2921718E-4,-4.668793E-3,3.9119984E-4,4.4865045E-3,-6.2044375E-5,5.8634793E-3,9.342614E-3,5.542987E-3,1.8707152E-3],"split_indices":[17,20,9,23,2,0,18,20,2,23,23,17,15,9,20,0,0,0,0,0,0,0,0,0,0,0,0,0,0,0,0],"split_type":[0,0,0,0,0,0,0,0,0,0,0,0,0,0,0,0,0,0,0,0,0,0,0,0,0,0,0,0,0,0,0],"sum_hessian":[1.0021731E4,6.890148E3,3.1315833E3,2.1513438E3,4.738804E3,1.3187277E3,1.8128556E3,5.882186E2,1.563125E3,2.375644E3,2.36316E3,4.544346E2,8.642931E2,5.238903E2,1.2889653E3,4.2982425E2,1.5839441E2,6.115703E2,9.515547E2,6.9071106E2,1.684933E3,3.4214807E2,2.021012E3,2.0970467E2,2.4472995E2,3.0236035E2,5.6193274E2,2.9416016E2,2.2973013E2,3.992129E2,8.8975244E2],"tree_param":{"num_deleted":"0","num_feature":"26","num_nodes":"31","size_leaf_vector":"1"}},{"base_weights":[-3.5073287E-3,3.2084712E-1,-1.2243053E-1,-1.1235836E-2,5.060162E-1,-3.9988363E-1,6.481742E-2,3.2172167E-1,-1.8405639E-1,7.6224893E-1,3.654499E-1,-2.3002718E-1,-5.8554673E-1,-1.3416576E-1,2.8593782E-1,5.352367E-4,5.1988917E-3,-4.392835E-3,-4.8096225E-4,6.7250035E-3,1.0807529E-2,2.0916758E-3,6.4251143E-3,-6.405709E-3,-1.3189515E-3,-9.55717E-3,-5.2564084E-3,9.866545E-4,-2.9421763E-3,1.8151125E-3,5.3235283E-3],"categories":[],"categories_nodes":[],"categories_segments":[],"categories_sizes":[],"default_left":[0,0,0,0,0,0,0,0,0,0,0,0,0,0,0,0,0,0,0,0,0,0,0,0,0,0,0,0,0,0,0],"id":32,"left_children":[1,3,5,7,9,11,13,15,17,19,21,23,25,27,29,-1,-1,-1,-1,-1,-1,-1,-1,-1,-1,-1,-1,-1,-1,-1,-1],"loss_changes":[3.9033493E2,1.6694446E2,3.847066E2,5.6038788E1,6.249948E1,9.395996E1,1.9459201E2,1.7658764E1,2.2224455E1,1.6896912E1,4.86839E1,6.27573E1,3.109494E1,8.6784256E1,5.380458E1,0E0,0E0,0E0,0E0,0E0,0E0,0E0,0E0,0E0,0E0,0E0,0E0,0E0,0E0,0E0,0E0],"parents":[2147483647,0,0,1,1,2,2,3,3,4,4,5,5,6,6,7,7,8,8,9,9,10,10,11,11,12,12,13,13,14,14],"right_children":[2,4,6,8,10,12,14,16,18,20,22,24,26,28,30,-1,-1,-1,-1,-1,-1,-1,-1,-1,-1,-1,-1,-1,-1,-1,-1],"split_conditions":[1.245E3,1.144E3,1.509E3,-2.341195E0,1.016E3,1.461E3,6.3E1,1E0,9.03E2,1.516E3,1.454E3,1.177E3,1.171E3,2.2E1,1.748E3,5.352367E-4,5.1988917E-3,-4.392835E-3,-4.8096225E-4,6.7250035E-3,1.0807529E-2,2.0916758E-3,6.4251143E-3,-6.405709E-3,-1.3189515E-3,-9.55717E-3,-5.2564084E-3,9.866545E-4,-2.9421763E-3,1.8151125E-3,5.3235283E-3],"split_indices":[1,0,0,18,1,1,23,6,0,0,0,0,0,20,0,0,0,0,0,0,0,0,0,0,0,0,0,0,0,0,0],"split_type":[0,0,0,0,0,0,0,0,0,0,0,0,0,0,0,0,0,0,0,0,0,0,0,0,0,0,0,0,0,0,0],"sum_hessian":[1.0117294E4,2.7138274E3,7.4034663E3,9.7184894E2,1.7419785E3,2.982716E3,4.42075E3,3.3177905E2,6.400699E2,6.1553E2,1.1264485E3,1.558834E3,1.423882E3,2.327057E3,2.093693E3,1.4151888E2,1.9026018E2,2.2168584E2,4.1838406E2,4.8264178E2,1.3288821E2,7.21325E2,4.051235E2,2.9965866E2,1.2591754E3,1.9625148E2,1.2276305E3,9.4814777E2,1.3789092E3,1.4717336E3,6.219595E2],"tree_param":{"num_deleted":"0","num_feature":"26","num_nodes":"31","size_leaf_vector":"1"}},{"base_weights":[1.9770365E-3,3.6786106E-1,-8.9387976E-2,1.6787056E-3,5.21172E-1,1.9421123E-1,-2.1135743E-1,2.5637943E-1,-2.339859E-1,8.258555E-1,3.9521292E-1,3.3240053E-1,1.4724391E-2,-3.6918873E-1,-5.5693496E-2,-4.613514E-4,4.8735025E-3,-7.167423E-5,-4.3828185E-3,6.9859857E-3,1.3921449E-2,1.9522487E-3,5.816903E-3,4.6885083E-3,1.8199026E-3,-1.4312459E-3,1.3776454E-3,-2.8423439E-3,-5.577956E-3,2.3367493E-5,-3.8641458E-3],"categories":[],"categories_nodes":[],"categories_segments":[],"categories_sizes":[],"default_left":[0,0,0,0,0,0,0,0,0,0,0,0,0,0,0,0,0,0,0,0,0,0,0,0,0,0,0,0,0,0,0],"id":33,"left_children":[1,3,5,7,9,11,13,15,17,19,21,23,25,27,29,-1,-1,-1,-1,-1,-1,-1,-1,-1,-1,-1,-1,-1,-1,-1,-1],"loss_changes":[3.356042E2,1.1261548E2,2.7791748E2,3.565458E1,5.393936E1,5.9930443E1,1.3800339E2,1.996886E1,1.429385E1,2.8765656E1,3.72666E1,2.793422E1,2.0455278E1,4.4535095E1,5.4304993E1,0E0,0E0,0E0,0E0,0E0,0E0,0E0,0E0,0E0,0E0,0E0,0E0,0E0,0E0,0E0,0E0],"parents":[2147483647,0,0,1,1,2,2,3,3,4,4,5,5,6,6,7,7,8,8,9,9,10,10,11,11,12,12,13,13,14,14],"right_children":[2,4,6,8,10,12,14,16,18,20,22,24,26,28,30,-1,-1,-1,-1,-1,-1,-1,-1,-1,-1,-1,-1,-1,-1,-1,-1],"split_conditions":[-1.297697E0,1.144E3,4E1,-2.470145E0,1.1958E3,6.1568964E-1,1E0,1E0,2E0,3.75E0,1.5E3,7.709524E0,1E0,7.709524E0,1.9333333E0,-4.613514E-4,4.8735025E-3,-7.167423E-5,-4.3828185E-3,6.9859857E-3,1.3921449E-2,1.9522487E-3,5.816903E-3,4.6885083E-3,1.8199026E-3,-1.4312459E-3,1.3776454E-3,-2.8423439E-3,-5.577956E-3,2.3367493E-5,-3.8641458E-3],"split_indices":[18,0,20,18,15,18,2,6,7,14,0,24,2,24,10,0,0,0,0,0,0,0,0,0,0,0,0,0,0,0,0],"split_type":[0,0,0,0,0,0,0,0,0,0,0,0,0,0,0,0,0,0,0,0,0,0,0,0,0,0,0,0,0,0,0],"sum_hessian":[1.003733E4,2.005E3,8.03233E3,5.920065E2,1.4129935E3,2.4154397E3,5.6168906E3,2.844701E2,3.075364E2,4.116626E2,1.00133093E3,1.3642407E3,1.051199E3,2.7883477E3,2.8285427E3,1.23506905E2,1.6096318E2,1.4622545E2,1.6131094E2,3.3795157E2,7.3711044E1,4.841501E2,5.1718085E2,7.142053E2,6.500354E2,4.6039374E2,5.9080524E2,1.9241556E3,8.641921E2,2.4071611E3,4.2138156E2],"tree_param":{"num_deleted":"0","num_feature":"26","num_nodes":"31","size_leaf_vector":"1"}},{"base_weights":[-1.1375522E-3,2.9605648E-1,-1.3022107E-1,7.8622526E-1,2.1870103E-1,1.7192987E-1,-2.8865138E-1,9.9410677E-1,6.213184E-1,1.6276802E-1,7.915729E-1,3.971548E-1,3.2441918E-2,-1.704935E-1,-4.6686628E-1,1.0562275E-2,5.1778397E-3,4.4516674E-3,7.2697415E-3,-1.8142873E-3,2.440612E-3,5.3574513E-3,1.0760521E-2,2.3390995E-3,4.9026683E-3,1.9625695E-3,-1.0597426E-3,-4.719019E-3,-1.093045E-3,-4.080111E-3,-7.2501143E-3],"categories":[],"categories_nodes":[],"categories_segments":[],"categories_sizes":[],"default_left":[0,0,0,0,0,0,0,0,0,0,0,0,0,0,0,0,0,0,0,0,0,0,0,0,0,0,0,0,0,0,0],"id":34,"left_children":[1,3,5,7,9,11,13,15,17,19,21,23,25,27,29,-1,-1,-1,-1,-1,-1,-1,-1,-1,-1,-1,-1,-1,-1,-1,-1],"loss_changes":[3.8431406E2,1.148526E2,3.3438702E2,1.3543869E1,8.386945E1,7.548265E1,9.641046E1,4.8109436E0,4.013359E0,6.690577E1,1.6375198E1,1.3854034E1,3.3694637E1,5.0794586E1,2.7450897E1,0E0,0E0,0E0,0E0,0E0,0E0,0E0,0E0,0E0,0E0,0E0,0E0,0E0,0E0,0E0,0E0],"parents":[2147483647,0,0,1,1,2,2,3,3,4,4,5,5,6,6,7,7,8,8,9,9,10,10,11,11,12,12,13,13,14,14],"right_children":[2,4,6,8,10,12,14,16,18,20,22,24,26,28,30,-1,-1,-1,-1,-1,-1,-1,-1,-1,-1,-1,-1,-1,-1,-1,-1],"split_conditions":[1.279E3,6.6E1,4E1,1.112E3,4E0,1.587E3,1.567E3,2.79E1,1E0,-1.9651612E0,2E0,1E0,1.4E1,1E0,9.8E1,1.0562275E-2,5.1778397E-3,4.4516674E-3,7.2697415E-3,-1.8142873E-3,2.440612E-3,5.3574513E-3,1.0760521E-2,2.3390995E-3,4.9026683E-3,1.9625695E-3,-1.0597426E-3,-4.719019E-3,-1.093045E-3,-4.080111E-3,-7.2501143E-3],"split_indices":[1,20,20,1,14,1,1,25,2,11,4,2,20,4,20,0,0,0,0,0,0,0,0,0,0,0,0,0,0,0,0],"split_type":[0,0,0,0,0,0,0,0,0,0,0,0,0,0,0,0,0,0,0,0,0,0,0,0,0,0,0,0,0,0,0],"sum_hessian":[1.0015866E4,3.0325696E3,6.983297E3,4.1210025E2,2.6204692E3,2.402079E3,4.5812183E3,1.8007254E2,2.3202773E2,2.388545E3,2.3192424E2,9.179916E2,1.4840874E3,2.7559548E3,1.8252633E3,1.582204E2,2.185214E1,8.894686E1,1.4308086E2,4.5611484E2,1.9324302E3,1.23629425E2,1.08294815E2,3.3470166E2,5.8329E2,6.7949255E2,8.045948E2,4.6393988E2,2.292015E3,1.4884813E3,3.3678195E2],"tree_param":{"num_deleted":"0","num_feature":"26","num_nodes":"31","size_leaf_vector":"1"}},{"base_weights":[-4.8197997E-3,3.1929895E-1,-1.2362579E-1,7.7979555E-3,5.207199E-1,1.5533604E-1,-3.102552E-1,3.2806334E-1,-1.6408968E-1,7.344323E-1,3.7292975E-1,-9.600589E-3,3.8158107E-1,-7.252192E-1,-2.52549E-1,2.0461858E-3,7.249486E-3,-5.1744115E-3,-8.1287517E-4,6.3378434E-3,1.0411582E-2,2.1155623E-3,6.099565E-3,2.0730824E-3,-1.1107818E-3,1.6872208E-3,5.011908E-3,-6.142306E-3,-1.009741E-2,-5.24855E-3,-1.4854986E-3],"categories":[],"categories_nodes":[],"categories_segments":[],"categories_sizes":[],"default_left":[0,0,0,0,0,0,0,0,0,0,0,0,0,0,0,0,0,0,0,0,0,0,0,0,0,0,0,0,0,0,0],"id":35,"left_children":[1,3,5,7,9,11,13,15,17,19,21,23,25,27,29,-1,-1,-1,-1,-1,-1,-1,-1,-1,-1,-1,-1,-1,-1,-1,-1],"loss_changes":[3.900448E2,1.7046481E2,3.8594333E2,5.8843636E1,5.184085E1,1.1089901E2,1.0616998E2,1.8141827E1,2.0310646E1,2.0132751E1,3.725937E1,3.7877003E1,3.181778E1,1.6485718E1,1.10387634E2,0E0,0E0,0E0,0E0,0E0,0E0,0E0,0E0,0E0,0E0,0E0,0E0,0E0,0E0,0E0,0E0],"parents":[2147483647,0,0,1,1,2,2,3,3,4,4,5,5,6,6,7,7,8,8,9,9,10,10,11,11,12,12,13,13,14,14],"right_children":[2,4,6,8,10,12,14,16,18,20,22,24,26,28,30,-1,-1,-1,-1,-1,-1,-1,-1,-1,-1,-1,-1,-1,-1,-1,-1],"split_conditions":[1.245E3,1.165E3,5.1E1,-2.341195E0,1.067E3,6.3E1,1.2E3,4.25E0,-2.5960739E0,1.516E3,1.451E3,1.2E1,1E0,1.503E3,5.1E1,2.0461858E-3,7.249486E-3,-5.1744115E-3,-8.1287517E-4,6.3378434E-3,1.0411582E-2,2.1155623E-3,6.099565E-3,2.0730824E-3,-1.1107818E-3,1.6872208E-3,5.011908E-3,-6.142306E-3,-1.009741E-2,-5.24855E-3,-1.4854986E-3],"split_indices":[1,0,20,18,1,23,0,14,11,0,0,20,2,1,23,0,0,0,0,0,0,0,0,0,0,0,0,0,0,0,0],"split_type":[0,0,0,0,0,0,0,0,0,0,0,0,0,0,0,0,0,0,0,0,0,0,0,0,0,0,0,0,0,0,0],"sum_hessian":[1.0127102E4,2.7159463E3,7.411155E3,1.0669413E3,1.6490049E3,2.9707837E3,4.4403716E3,3.7231888E2,6.946225E2,6.7252637E2,9.764785E2,1.7187455E3,1.2520382E3,5.406931E2,3.8996782E3,2.8514478E2,8.7174095E1,1.30875E2,5.637475E2,5.086772E2,1.6384918E2,5.820782E2,3.9440033E2,5.474741E2,1.1712714E3,4.5130338E2,8.007348E2,3.9123557E2,1.4945757E2,1.0766322E3,2.8230461E3],"tree_param":{"num_deleted":"0","num_feature":"26","num_nodes":"31","size_leaf_vector":"1"}},{"base_weights":[1.8802856E-3,3.577653E-1,-9.298421E-2,-1.8981872E-2,5.428792E-1,2.2109298E-1,-2.4337801E-1,-9.300607E-2,5.1748765E-1,1.1066574E0,4.890631E-1,4.9184177E-2,4.7116068E-1,-1.0164209E-1,-4.2264917E-1,-1.7149558E-3,4.1714455E-3,6.1031654E-3,-1.1293673E-3,3.816657E-3,1.1891813E-2,6.451197E-3,3.260849E-3,-3.403263E-3,1.0363584E-3,3.951973E-3,7.910577E-3,-2.8085106E-3,1.0929597E-3,-5.8243745E-3,-2.7511793E-3],"categories":[],"categories_nodes":[],"categories_segments":[],"categories_sizes":[],"default_left":[0,0,0,0,0,0,0,0,0,0,0,0,0,0,0,0,0,0,0,0,0,0,0,0,0,0,0,0,0,0,0],"id":36,"left_children":[1,3,5,7,9,11,13,15,17,19,21,23,25,27,29,-1,-1,-1,-1,-1,-1,-1,-1,-1,-1,-1,-1,-1,-1,-1,-1],"loss_changes":[3.4258224E2,1.4894946E2,3.7849042E2,2.8027927E1,4.290695E1,1.11519615E2,1.3762503E2,2.4896805E1,5.0774384E0,6.964508E0,3.3083374E1,3.267156E1,2.5371368E1,1.1446131E2,5.6226807E1,0E0,0E0,0E0,0E0,0E0,0E0,0E0,0E0,0E0,0E0,0E0,0E0,0E0,0E0,0E0,0E0],"parents":[2147483647,0,0,1,1,2,2,3,3,4,4,5,5,6,6,7,7,8,8,9,9,10,10,11,11,12,12,13,13,14,14],"right_children":[2,4,6,8,10,12,14,16,18,20,22,24,26,28,30,-1,-1,-1,-1,-1,-1,-1,-1,-1,-1,-1,-1,-1,-1,-1,-1],"split_conditions":[1.184E3,1.111E3,4E1,3.9333334E0,3.2E1,6.6724556E1,1.503E3,2E0,1.5E0,-1.1354016E0,1.044E3,7E0,1.884E3,1.394E3,1.506E3,-1.7149558E-3,4.1714455E-3,6.1031654E-3,-1.1293673E-3,3.816657E-3,1.1891813E-2,6.451197E-3,3.260849E-3,-3.403263E-3,1.0363584E-3,3.951973E-3,7.910577E-3,-2.8085106E-3,1.0929597E-3,-5.8243745E-3,-2.7511793E-3],"split_indices":[1,0,20,17,20,23,1,6,13,19,1,23,0,0,0,0,0,0,0,0,0,0,0,0,0,0,0,0,0,0,0],"split_type":[0,0,0,0,0,0,0,0,0,0,0,0,0,0,0,0,0,0,0,0,0,0,0,0,0,0,0,0,0,0,0],"sum_hessian":[1.0145338E4,2.1345989E3,8.010739E3,7.035727E2,1.4310261E3,2.5936921E3,5.4170464E3,6.189888E2,8.45839E1,1.2299245E2,1.3080337E3,1.5377583E3,1.0559338E3,3.026105E3,2.3909417E3,5.370279E2,8.19609E1,7.375543E1,1.0828468E1,1.3144033E1,1.0984841E2,6.666948E2,6.4133887E2,1.8796114E2,1.3497972E3,8.551125E2,2.0082137E2,1.6359237E3,1.3901813E3,1.1463757E3,1.2445659E3],"tree_param":{"num_deleted":"0","num_feature":"26","num_nodes":"31","size_leaf_vector":"1"}},{"base_weights":[-2.404426E-3,3.1036216E-1,-1.1694721E-1,-5.695216E-2,4.6920523E-1,-3.6878642E-1,5.5187482E-2,8.182013E-2,-3.836277E-1,6.994723E-1,3.0399388E-1,-2.3683462E-1,-5.8499396E-1,-1.2169796E-1,2.5468236E-1,-3.3132918E-4,3.3468653E-3,3.553895E-3,-4.434068E-3,1.469404E-3,7.4600293E-3,1.7802648E-3,6.8090763E-3,-5.859663E-3,-1.5292552E-3,-9.484608E-3,-5.2030883E-3,7.367721E-4,-2.678821E-3,5.2506956E-3,1.6032734E-3],"categories":[],"categories_nodes":[],"categories_segments":[],"categories_sizes":[],"default_left":[0,0,0,0,0,0,0,0,0,0,0,0,0,0,0,0,0,0,0,0,0,0,0,0,0,0,0,0,0,0,0],"id":37,"left_children":[1,3,5,7,9,11,13,15,17,19,21,23,25,27,29,-1,-1,-1,-1,-1,-1,-1,-1,-1,-1,-1,-1,-1,-1,-1,-1],"loss_changes":[3.652888E2,1.594971E2,3.235522E2,3.747821E1,7.2379944E1,8.631036E1,1.5649649E2,1.68871E1,1.104541E1,2.036496E1,5.271367E1,5.508661E1,2.6491516E1,6.716173E1,5.3087234E1,0E0,0E0,0E0,0E0,0E0,0E0,0E0,0E0,0E0,0E0,0E0,0E0,0E0,0E0,0E0,0E0],"parents":[2147483647,0,0,1,1,2,2,3,3,4,4,5,5,6,6,7,7,8,8,9,9,10,10,11,11,12,12,13,13,14,14],"right_children":[2,4,6,8,10,12,14,16,18,20,22,24,26,28,30,-1,-1,-1,-1,-1,-1,-1,-1,-1,-1,-1,-1,-1,-1,-1,-1],"split_conditions":[1.245E3,1.111E3,1.513E3,1E0,1.056E3,1.506E3,6.3E1,2.8E0,7.49E2,1.3559804E0,1.513E3,1.195E3,1.216E3,2.3E1,2.1E1,-3.3132918E-4,3.3468653E-3,3.553895E-3,-4.434068E-3,1.469404E-3,7.4600293E-3,1.7802648E-3,6.8090763E-3,-5.859663E-3,-1.5292552E-3,-9.484608E-3,-5.2030883E-3,7.367721E-4,-2.678821E-3,5.2506956E-3,1.6032734E-3],"split_indices":[1,0,0,5,1,1,23,14,1,17,0,0,0,20,20,0,0,0,0,0,0,0,0,0,0,0,0,0,0,0,0],"split_type":[0,0,0,0,0,0,0,0,0,0,0,0,0,0,0,0,0,0,0,0,0,0,0,0,0,0,0,0,0,0,0],"sum_hessian":[1.0194419E4,2.7322158E3,7.4622036E3,8.250296E2,1.907186E3,3.0292136E3,4.43299E3,5.795748E2,2.4545477E2,7.953772E2,1.111809E3,1.8824481E3,1.1467655E3,2.3498481E3,2.0831418E3,3.990402E2,1.8053465E2,1.79989E1,2.2745587E2,6.2101845E1,7.332753E2,8.344139E2,2.7739502E2,3.6359732E2,1.5188508E3,1.7118892E2,9.7557654E2,1.0059249E3,1.3439232E3,5.377063E2,1.5454355E3],"tree_param":{"num_deleted":"0","num_feature":"26","num_nodes":"31","size_leaf_vector":"1"}},{"base_weights":[-6.9062295E-4,2.8212535E-1,-1.275456E-1,-8.23637E-2,4.2426288E-1,-4.13414E-1,4.052846E-2,-1.6539133E-1,6.027889E-1,7.0734566E-1,2.958412E-1,-2.9040554E-1,-6.397629E-1,-1.288431E-1,2.4688962E-1,-2.760522E-4,-4.2849244E-3,8.068562E-3,3.4738162E-3,5.0340197E-3,8.363115E-3,1.4197198E-3,5.6294263E-3,-6.040651E-3,-2.0892136E-3,-1.0061418E-2,-5.808022E-3,1.001215E-3,-2.7706942E-3,1.376117E-3,4.9607027E-3],"categories":[],"categories_nodes":[],"categories_segments":[],"categories_sizes":[],"default_left":[0,0,0,0,0,0,0,0,0,0,0,0,0,0,0,0,0,0,0,0,0,0,0,0,0,0,0,0,0,0,0],"id":38,"left_children":[1,3,5,7,9,11,13,15,17,19,21,23,25,27,29,-1,-1,-1,-1,-1,-1,-1,-1,-1,-1,-1,-1,-1,-1,-1,-1],"loss_changes":[3.6574857E2,1.635798E2,3.381646E2,5.0529217E1,8.236093E1,7.236926E1,1.5497154E2,2.8679983E1,4.7248497E0,1.8203247E1,6.420595E1,4.307199E1,1.921811E1,8.26799E1,5.4354065E1,0E0,0E0,0E0,0E0,0E0,0E0,0E0,0E0,0E0,0E0,0E0,0E0,0E0,0E0,0E0,0E0],"parents":[2147483647,0,0,1,1,2,2,3,3,4,4,5,5,6,6,7,7,8,8,9,9,10,10,11,11,12,12,13,13,14,14],"right_children":[2,4,6,8,10,12,14,16,18,20,22,24,26,28,30,-1,-1,-1,-1,-1,-1,-1,-1,-1,-1,-1,-1,-1,-1,-1,-1],"split_conditions":[1.283E3,1.111E3,1.496E3,3.9333334E0,1.016E3,1.536E3,6.5E1,1E0,7.692308E-1,1E0,1.454E3,1.203E3,1.2E3,2.2E1,1.741E3,-2.760522E-4,-4.2849244E-3,8.068562E-3,3.4738162E-3,5.0340197E-3,8.363115E-3,1.4197198E-3,5.6294263E-3,-6.040651E-3,-2.0892136E-3,-1.0061418E-2,-5.808022E-3,1.001215E-3,-2.7706942E-3,1.376117E-3,4.9607027E-3],"split_indices":[1,0,0,17,1,1,23,5,16,2,0,0,0,20,0,0,0,0,0,0,0,0,0,0,0,0,0,0,0,0,0],"split_type":[0,0,0,0,0,0,0,0,0,0,0,0,0,0,0,0,0,0,0,0,0,0,0,0,0,0,0,0,0,0,0],"sum_hessian":[1.0192621E4,3.1557751E3,7.036846E3,8.854922E2,2.270283E3,2.6048806E3,4.431966E3,7.904617E2,9.5030495E1,7.0709973E2,1.5631832E3,1.6891831E3,9.1569745E2,2.4343452E3,1.9976206E3,5.1950287E2,2.7095883E2,5.1624264E1,4.340623E1,2.7582294E2,4.3127682E2,9.9279504E2,5.703882E2,3.470107E2,1.3421724E3,1.2470724E2,7.909902E2,9.567625E2,1.4775826E3,1.3897148E3,6.0790576E2],"tree_param":{"num_deleted":"0","num_feature":"26","num_nodes":"31","size_leaf_vector":"1"}},{"base_weights":[3.406003E-4,3.7201074E-1,-8.8489115E-2,4.7718197E-2,5.77747E-1,-2.9135144E-1,8.009367E-2,-2.1440256E-2,7.464441E-1,1.0387937E0,5.24486E-1,-1.8680875E-1,-6.087204E-1,-1.1288405E-1,2.759674E-1,-1.9327974E-3,1.804179E-3,5.657756E-3,1.3080684E-2,1.2844135E-2,8.305267E-3,4.872987E-3,1.1926349E-2,-5.848152E-3,-1.1547366E-3,-1.0267819E-2,-5.511685E-3,4.7625392E-4,-2.5442066E-3,2.2271671E-3,7.411595E-3],"categories":[],"categories_nodes":[],"categories_segments":[],"categories_sizes":[],"default_left":[0,0,0,0,0,0,0,0,0,0,0,0,0,0,0,0,0,0,0,0,0,0,0,0,0,0,0,0,0,0,0],"id":39,"left_children":[1,3,5,7,9,11,13,15,17,19,21,23,25,27,29,-1,-1,-1,-1,-1,-1,-1,-1,-1,-1,-1,-1,-1,-1,-1,-1],"loss_changes":[3.3336496E2,1.2992368E2,2.787297E2,3.660259E1,2.871637E1,1.22611664E2,1.6829816E2,2.3965958E1,6.1818314E0,5.19368E0,2.601062E1,7.8970764E1,2.1475403E1,5.0970413E1,5.4568466E1,0E0,0E0,0E0,0E0,0E0,0E0,0E0,0E0,0E0,0E0,0E0,0E0,0E0,0E0,0E0,0E0],"parents":[2147483647,0,0,1,1,2,2,3,3,4,4,5,5,6,6,7,7,8,8,9,9,10,10,11,11,12,12,13,13,14,14],"right_children":[2,4,6,8,10,12,14,16,18,20,22,24,26,28,30,-1,-1,-1,-1,-1,-1,-1,-1,-1,-1,-1,-1,-1,-1,-1,-1],"split_conditions":[1.144E3,1.144E3,1.516E3,4.3333335E0,3.7E1,1.549E3,6.3E1,9.54E2,9.82E2,1.3262E3,4.3333335E0,1.111E3,1.2E3,2.6E1,1.892E3,-1.9327974E-3,1.804179E-3,5.657756E-3,1.3080684E-2,1.2844135E-2,8.305267E-3,4.872987E-3,1.1926349E-2,-5.848152E-3,-1.1547366E-3,-1.0267819E-2,-5.511685E-3,4.7625392E-4,-2.5442066E-3,2.2271671E-3,7.411595E-3],"split_indices":[1,0,0,17,20,1,23,0,1,15,17,0,0,20,0,0,0,0,0,0,0,0,0,0,0,0,0,0,0,0,0],"split_type":[0,0,0,0,0,0,0,0,0,0,0,0,0,0,0,0,0,0,0,0,0,0,0,0,0,0,0,0,0,0,0],"sum_hessian":[1.0095273E4,1.9467478E3,8.148526E3,7.5612885E2,1.190619E3,3.6979312E3,4.4505947E3,6.8891113E2,6.72177E1,1.2138259E2,1.0692363E3,2.7828403E3,9.150907E2,2.242084E3,2.2085107E3,3.7214822E2,3.1676294E2,5.2376217E1,1.4841476E1,5.33257E1,6.805689E1,1.01450134E3,5.4735035E1,4.2186908E2,2.3609712E3,1.08693306E2,8.063974E2,1.0509353E3,1.1911486E3,1.9829956E3,2.2551527E2],"tree_param":{"num_deleted":"0","num_feature":"26","num_nodes":"31","size_leaf_vector":"1"}},{"base_weights":[8.985053E-3,3.5549426E-1,-9.9992216E-2,3.278158E-2,5.5040675E-1,1.183481E-1,-2.952724E-1,1.5986237E-1,-2.7454486E-1,7.4444735E-1,4.0724653E-1,3.2996437E-1,-3.2396313E-2,-1.6019402E-1,-5.0208044E-1,7.389315E-4,5.324377E-3,-4.4704857E-3,-2.5000717E-4,8.4528625E-3,4.5255194E-3,2.4199905E-3,6.6958982E-3,2.8479206E-3,8.572015E-3,1.0526418E-3,-2.031559E-3,-4.7505056E-3,-3.93703E-4,-6.703501E-3,-3.741448E-3],"categories":[],"categories_nodes":[],"categories_segments":[],"categories_sizes":[],"default_left":[0,0,0,0,0,0,0,0,0,0,0,0,0,0,0,0,0,0,0,0,0,0,0,0,0,0,0,0,0,0,0],"id":40,"left_children":[1,3,5,7,9,11,13,15,17,19,21,23,25,27,29,-1,-1,-1,-1,-1,-1,-1,-1,-1,-1,-1,-1,-1,-1,-1,-1],"loss_changes":[3.8194904E2,1.522013E2,3.2812256E2,3.5674618E1,4.16062E1,1.1592295E2,1.1339798E2,2.0653965E1,1.1493433E1,1.843518E1,3.7569824E1,3.575923E1,4.992452E1,9.351543E1,3.429019E1,0E0,0E0,0E0,0E0,0E0,0E0,0E0,0E0,0E0,0E0,0E0,0E0,0E0,0E0,0E0,0E0],"parents":[2147483647,0,0,1,1,2,2,3,3,4,4,5,5,6,6,7,7,8,8,9,9,10,10,11,11,12,12,13,13,14,14],"right_children":[2,4,6,8,10,12,14,16,18,20,22,24,26,28,30,-1,-1,-1,-1,-1,-1,-1,-1,-1,-1,-1,-1,-1,-1,-1,-1],"split_conditions":[1.207E3,1.144E3,6.4E1,1E0,9.99E2,1.577E3,1.506E3,1.6666666E0,1E0,-1.297697E0,1.451E3,8.727704E0,2.6E1,1.257E3,1.407E3,7.389315E-4,5.324377E-3,-4.4704857E-3,-2.5000717E-4,8.4528625E-3,4.5255194E-3,2.4199905E-3,6.6958982E-3,2.8479206E-3,8.572015E-3,1.0526418E-3,-2.031559E-3,-4.7505056E-3,-3.93703E-4,-6.703501E-3,-3.741448E-3],"split_indices":[1,0,20,5,1,1,1,9,9,18,0,21,20,0,0,0,0,0,0,0,0,0,0,0,0,0,0,0,0,0,0],"split_type":[0,0,0,0,0,0,0,0,0,0,0,0,0,0,0,0,0,0,0,0,0,0,0,0,0,0,0,0,0,0,0],"sum_hessian":[1.0112798E4,2.418993E3,7.693805E3,9.113151E2,1.5076779E3,3.6326167E3,4.0611885E3,6.4505994E2,2.662552E2,6.383088E2,8.693691E2,1.5106976E3,2.1219192E3,2.4576975E3,1.6034911E3,5.2509595E2,1.1996397E2,1.569607E2,1.09294495E2,4.7300668E2,1.653021E2,5.345706E2,3.3479843E2,1.392898E3,1.177997E2,1.1750322E3,9.468869E2,6.8076056E2,1.7769369E3,6.9074115E2,9.127499E2],"tree_param":{"num_deleted":"0","num_feature":"26","num_nodes":"31","size_leaf_vector":"1"}},{"base_weights":[-1.287293E-4,3.269927E-1,-9.976137E-2,-3.565576E-2,4.925546E-1,-3.5660824E-1,7.018656E-2,3.3241042E-1,-1.1727738E-1,7.446524E-1,3.6045086E-1,-2.0727213E-1,-5.477497E-1,2.672834E-1,-8.870848E-2,1.2092267E-3,6.9212634E-3,-3.6677213E-3,-3.4205095E-4,6.839728E-3,1.1047451E-2,2.4033636E-3,6.4989645E-3,-4.7479384E-3,-1.0075226E-3,-8.496687E-3,-4.920973E-3,1.1971863E-3,4.4763405E-3,-2.4298765E-3,8.3622924E-4],"categories":[],"categories_nodes":[],"categories_segments":[],"categories_sizes":[],"default_left":[0,0,0,0,0,0,0,0,0,0,0,0,0,0,0,0,0,0,0,0,0,0,0,0,0,0,0,0,0,0,0],"id":41,"left_children":[1,3,5,7,9,11,13,15,17,19,21,23,25,27,29,-1,-1,-1,-1,-1,-1,-1,-1,-1,-1,-1,-1,-1,-1,-1,-1],"loss_changes":[3.287233E2,1.4139828E2,3.374998E2,2.2240208E1,5.3574066E1,8.776669E1,1.4576222E2,1.0140483E1,1.253933E1,1.1370483E1,3.679309E1,4.925038E1,2.2260956E1,5.5231384E1,6.8541084E1,0E0,0E0,0E0,0E0,0E0,0E0,0E0,0E0,0E0,0E0,0E0,0E0,0E0,0E0,0E0,0E0],"parents":[2147483647,0,0,1,1,2,2,3,3,4,4,5,5,6,6,7,7,8,8,9,9,10,10,11,11,12,12,13,13,14,14],"right_children":[2,4,6,8,10,12,14,16,18,20,22,24,26,28,30,-1,-1,-1,-1,-1,-1,-1,-1,-1,-1,-1,-1,-1,-1,-1,-1],"split_conditions":[1.207E3,1.111E3,1.496E3,-3.3430312E0,-2.2764416E0,1.458E3,1.577E3,4.25E0,7.262451E0,4.3333335E0,1.451E3,1.221E3,1.203E3,1.68E3,1.76E3,1.2092267E-3,6.9212634E-3,-3.6677213E-3,-3.4205095E-4,6.839728E-3,1.1047451E-2,2.4033636E-3,6.4989645E-3,-4.7479384E-3,-1.0075226E-3,-8.496687E-3,-4.920973E-3,1.1971863E-3,4.4763405E-3,-2.4298765E-3,8.3622924E-4],"split_indices":[1,0,0,18,18,1,1,14,24,17,0,0,0,0,0,0,0,0,0,0,0,0,0,0,0,0,0,0,0,0,0],"split_type":[0,0,0,0,0,0,0,0,0,0,0,0,0,0,0,0,0,0,0,0,0,0,0,0,0,0,0,0,0,0,0],"sum_hessian":[1.00840205E4,2.353745E3,7.730276E3,7.380023E2,1.6157427E3,3.0777266E3,4.6525493E3,1.3339511E2,6.046072E2,5.539622E2,1.0617805E3,1.7289818E3,1.3487446E3,2.0763357E3,2.5762136E3,8.4847115E1,4.8547993E1,1.5017242E2,4.5443478E2,4.765566E2,7.740558E1,7.516784E2,3.101021E2,4.913963E2,1.2375856E3,2.0769803E2,1.1410466E3,1.1428817E3,9.33454E2,1.3590859E3,1.2171277E3],"tree_param":{"num_deleted":"0","num_feature":"26","num_nodes":"31","size_leaf_vector":"1"}},{"base_weights":[4.842523E-3,3.1391564E-1,-1.0241923E-1,4.828304E-1,9.641132E-2,1.248432E-1,-2.859789E-1,9.4371825E-1,4.089226E-1,-1.0461331E-1,2.5367498E-1,-1.7628363E-1,2.5595266E-1,-1.18948154E-1,-4.2379287E-1,7.9796715E-3,1.1954669E-2,2.2370112E-3,5.748181E-3,-3.3771384E-3,5.579053E-4,4.4271615E-3,9.058444E-4,2.2167225E-5,-4.054205E-3,6.633635E-4,3.772113E-3,-4.190396E-3,-3.069926E-4,-7.0729624E-3,-3.7014754E-3],"categories":[],"categories_nodes":[],"categories_segments":[],"categories_sizes":[],"default_left":[0,0,0,0,0,0,0,0,0,0,0,0,0,0,0,0,0,0,0,0,0,0,0,0,0,0,0,0,0,0,0],"id":42,"left_children":[1,3,5,7,9,11,13,15,17,19,21,23,25,27,29,-1,-1,-1,-1,-1,-1,-1,-1,-1,-1,-1,-1,-1,-1,-1,-1],"loss_changes":[3.320919E2,9.477107E1,3.1026123E2,4.9087708E1,3.5730873E1,1.312562E2,9.4653534E1,6.3829346E0,3.838672E1,1.858051E1,1.9505322E1,4.1257076E1,5.3220108E1,4.927957E1,3.401581E1,0E0,0E0,0E0,0E0,0E0,0E0,0E0,0E0,0E0,0E0,0E0,0E0,0E0,0E0,0E0,0E0],"parents":[2147483647,0,0,1,1,2,2,3,3,4,4,5,5,6,6,7,7,8,8,9,9,10,10,11,11,12,12,13,13,14,14],"right_children":[2,4,6,8,10,12,14,16,18,20,22,24,26,28,30,-1,-1,-1,-1,-1,-1,-1,-1,-1,-1,-1,-1,-1,-1,-1,-1],"split_conditions":[1.23E3,1.6E0,5.7E1,5.6E1,2E0,3.1E1,1.442E3,2.5E0,1.8666667E0,8.75E-1,1.133E3,2.3E1,1E0,1E0,2.2E1,7.9796715E-3,1.1954669E-2,2.2370112E-3,5.748181E-3,-3.3771384E-3,5.579053E-4,4.4271615E-3,9.058444E-4,2.2167225E-5,-4.054205E-3,6.633635E-4,3.772113E-3,-4.190396E-3,-3.069926E-4,-7.0729624E-3,-3.7014754E-3],"split_indices":[1,10,20,20,14,23,1,14,17,9,15,20,2,4,23,0,0,0,0,0,0,0,0,0,0,0,0,0,0,0,0],"split_type":[0,0,0,0,0,0,0,0,0,0,0,0,0,0,0,0,0,0,0,0,0,0,0,0,0,0,0,0,0,0,0],"sum_hessian":[1.0015363E4,2.5797952E3,7.435568E3,1.4514069E3,1.1283883E3,3.3224336E3,4.1131343E3,1.9895534E2,1.2524515E3,4.9543103E2,6.3295734E2,1.0076833E3,2.3147502E3,1.8603046E3,2.2528296E3,1.2864526E2,7.0310074E1,5.92867E2,6.595846E2,2.0150151E2,2.939295E2,2.9236142E2,3.4059592E2,5.6698535E2,4.4069797E2,9.034857E2,1.4112646E3,4.2189545E2,1.438409E3,3.5651947E2,1.8963102E3],"tree_param":{"num_deleted":"0","num_feature":"26","num_nodes":"31","size_leaf_vector":"1"}},{"base_weights":[6.2177614E-3,3.2100144E-1,-7.966812E-2,1.542814E-1,5.4983574E-1,1.7605852E-1,-1.9513567E-1,-8.076013E-2,2.7196297E-1,7.6666325E-1,3.8630176E-1,-1.0898712E-1,3.081222E-1,-4.679703E-1,-1.0761868E-1,5.153872E-4,-3.8308625E-3,2.1453123E-3,7.2839693E-3,6.376831E-3,9.536698E-3,-1.5893804E-5,5.018255E-3,-1.0632894E-4,-3.515017E-3,1.2530735E-3,4.193421E-3,-7.100962E-3,-3.8350753E-3,-2.5879066E-3,2.5715213E-4],"categories":[],"categories_nodes":[],"categories_segments":[],"categories_sizes":[],"default_left":[0,0,0,0,0,0,0,0,0,0,0,0,0,0,0,0,0,0,0,0,0,0,0,0,0,0,0,0,0,0,0],"id":43,"left_children":[1,3,5,7,9,11,13,15,17,19,21,23,25,27,29,-1,-1,-1,-1,-1,-1,-1,-1,-1,-1,-1,-1,-1,-1,-1,-1],"loss_changes":[2.742731E2,8.2879745E1,2.3538431E2,3.485822E1,3.219037E1,9.338627E1,1.3107372E2,1.6857372E1,2.1849552E1,8.868439E0,2.349456E1,1.8741974E1,3.4410583E1,2.699646E1,8.38389E1,0E0,0E0,0E0,0E0,0E0,0E0,0E0,0E0,0E0,0E0,0E0,0E0,0E0,0E0,0E0,0E0],"parents":[2147483647,0,0,1,1,2,2,3,3,4,4,5,5,6,6,7,7,8,8,9,9,10,10,11,11,12,12,13,13,14,14],"right_children":[2,4,6,8,10,12,14,16,18,20,22,24,26,28,30,-1,-1,-1,-1,-1,-1,-1,-1,-1,-1,-1,-1,-1,-1,-1,-1],"split_conditions":[-1.2502848E0,1.4E0,4E1,1.107E3,-2.2764416E0,3.1E1,5.4E1,1E0,4E0,3.3333333E0,1.225E3,2.3E1,1E0,1.407E3,1E0,5.153872E-4,-3.8308625E-3,2.1453123E-3,7.2839693E-3,6.376831E-3,9.536698E-3,-1.5893804E-5,5.018255E-3,-1.0632894E-4,-3.515017E-3,1.2530735E-3,4.193421E-3,-7.100962E-3,-3.8350753E-3,-2.5879066E-3,2.5715213E-4],"split_indices":[18,9,20,0,18,23,23,5,14,14,0,20,2,0,2,0,0,0,0,0,0,0,0,0,0,0,0,0,0,0,0],"split_type":[0,0,0,0,0,0,0,0,0,0,0,0,0,0,0,0,0,0,0,0,0,0,0,0,0,0,0,0,0,0,0],"sum_hessian":[1.0142987E4,2.1736223E3,7.969365E3,1.2584427E3,9.1517975E2,2.4788708E3,5.490494E3,4.1996805E2,8.384746E2,3.9188992E2,5.232898E2,7.849067E2,1.6939641E3,1.3323958E3,4.1580986E3,2.9270776E2,1.2726029E2,7.4606903E2,9.240563E1,2.3453735E2,1.5735257E2,1.2031098E2,4.0297882E2,5.5917255E2,2.2573418E2,6.415535E2,1.0524105E3,3.426702E2,9.897256E2,1.9482551E3,2.2098435E3],"tree_param":{"num_deleted":"0","num_feature":"26","num_nodes":"31","size_leaf_vector":"1"}},{"base_weights":[-7.858257E-4,3.056983E-1,-1.065681E-1,-6.428028E-2,4.6124193E-1,-3.6226785E-1,6.78517E-2,5.8833063E-2,-3.6987644E-1,3.668578E-1,7.705875E-1,-2.0063886E-1,-5.423236E-1,-1.0730524E-1,2.731772E-1,-1.4864954E-3,2.3995568E-3,-4.9862955E-3,6.741591E-5,5.798528E-3,1.8875783E-3,8.954035E-3,5.538987E-3,-5.8589517E-3,-1.0034418E-3,-4.667553E-3,-7.4789166E-3,2.1259552E-3,-1.9380787E-3,7.888295E-4,3.8811706E-3],"categories":[],"categories_nodes":[],"categories_segments":[],"categories_sizes":[],"default_left":[0,0,0,0,0,0,0,0,0,0,0,0,0,0,0,0,0,0,0,0,0,0,0,0,0,0,0,0,0,0,0],"id":44,"left_children":[1,3,5,7,9,11,13,15,17,19,21,23,25,27,29,-1,-1,-1,-1,-1,-1,-1,-1,-1,-1,-1,-1,-1,-1,-1,-1],"loss_changes":[3.2883517E2,1.4979842E2,3.3631396E2,2.9035336E1,5.3216827E1,8.888144E1,1.6127202E2,2.072605E1,1.0748646E1,5.3222015E1,1.1065155E1,6.2264854E1,2.2111908E1,6.701294E1,4.6068527E1,0E0,0E0,0E0,0E0,0E0,0E0,0E0,0E0,0E0,0E0,0E0,0E0,0E0,0E0,0E0,0E0],"parents":[2147483647,0,0,1,1,2,2,3,3,4,4,5,5,6,6,7,7,8,8,9,9,10,10,11,11,12,12,13,13,14,14],"right_children":[2,4,6,8,10,12,14,16,18,20,22,24,26,28,30,-1,-1,-1,-1,-1,-1,-1,-1,-1,-1,-1,-1,-1,-1,-1,-1],"split_conditions":[1.23E3,1.111E3,1.513E3,1E0,1.5E3,1.458E3,6.6E1,1E0,1.056E3,1.056E3,1.112E3,1.195E3,1.684E3,1.1E1,1E0,-1.4864954E-3,2.3995568E-3,-4.9862955E-3,6.741591E-5,5.798528E-3,1.8875783E-3,8.954035E-3,5.538987E-3,-5.8589517E-3,-1.0034418E-3,-4.667553E-3,-7.4789166E-3,2.1259552E-3,-1.9380787E-3,7.888295E-4,3.8811706E-3],"split_indices":[1,0,0,5,0,1,23,2,0,1,1,0,1,20,2,0,0,0,0,0,0,0,0,0,0,0,0,0,0,0,0],"split_type":[0,0,0,0,0,0,0,0,0,0,0,0,0,0,0,0,0,0,0,0,0,0,0,0,0,0,0,0,0,0,0],"sum_hessian":[1.0140784E4,2.6015103E3,7.539274E3,7.701665E2,1.8313438E3,3.0568496E3,4.4824243E3,5.495719E2,2.2059462E2,1.4048862E3,4.264575E2,1.6119655E3,1.4448842E3,2.419176E3,2.0632483E3,2.5623016E2,2.9334174E2,1.6415244E2,5.6442192E1,6.387411E2,7.661452E2,2.686048E2,1.578527E2,3.3196506E2,1.2800004E3,1.0588969E3,3.8598724E2,5.146094E2,1.9045668E3,7.675198E2,1.2957284E3],"tree_param":{"num_deleted":"0","num_feature":"26","num_nodes":"31","size_leaf_vector":"1"}},{"base_weights":[4.7064316E-3,3.1795684E-1,-9.348679E-2,9.2841E-2,4.5965222E-1,1.5896313E-1,-2.5040534E-1,-8.197178E-2,2.7738848E-1,1.0912098E0,4.146505E-1,-1.14798315E-1,2.8195992E-1,